digraph Tree {
node [shape=box, style="filled, rounded", color="black", fontname="helvetica"] ;
edge [fontname="helvetica"] ;
0 [label="ymax <= 139.5\ngini = 0.396\nsamples = 132406\nvalue = [101314, 6313, 10637, 1442, 12700]\nclass = 1", fillcolor="#eca26c"] ;
1 [label="ymin <= 118.5\ngini = 0.166\nsamples = 13125\nvalue = [970, 100, 112, 0, 11943]\nclass = 5", fillcolor="#e84cc6"] ;
0 -> 1 [labeldistance=2.5, labelangle=45, headlabel="True"] ;
2 [label="ymax <= 135.5\ngini = 0.078\nsamples = 10645\nvalue = [337.0, 46.0, 44.0, 0.0, 10218.0]\nclass = 5", fillcolor="#e641c3"] ;
1 -> 2 ;
3 [label="ymin <= 106.5\ngini = 0.068\nsamples = 10511\nvalue = [307, 27, 37, 0, 10140]\nclass = 5", fillcolor="#e640c2"] ;
2 -> 3 ;
4 [label="ymax <= 10.5\ngini = 0.038\nsamples = 7671\nvalue = [114, 10, 23, 0, 7524]\nclass = 5", fillcolor="#e63dc1"] ;
3 -> 4 ;
5 [label="xmin <= 132.5\ngini = 0.494\nsamples = 9\nvalue = [6, 1, 2, 0, 0]\nclass = 1", fillcolor="#f0b78e"] ;
4 -> 5 ;
6 [label="gini = 0.0\nsamples = 2\nvalue = [0, 0, 2, 0, 0]\nclass = 3", fillcolor="#39e5c5"] ;
5 -> 6 ;
7 [label="xmax <= 327.5\ngini = 0.245\nsamples = 7\nvalue = [6, 1, 0, 0, 0]\nclass = 1", fillcolor="#e9965a"] ;
5 -> 7 ;
8 [label="gini = 0.0\nsamples = 6\nvalue = [6, 0, 0, 0, 0]\nclass = 1", fillcolor="#e58139"] ;
7 -> 8 ;
9 [label="gini = 0.0\nsamples = 1\nvalue = [0, 1, 0, 0, 0]\nclass = 2", fillcolor="#7be539"] ;
7 -> 9 ;
10 [label="ymax <= 132.5\ngini = 0.035\nsamples = 7662\nvalue = [108, 9, 21, 0, 7524]\nclass = 5", fillcolor="#e53dc1"] ;
4 -> 10 ;
11 [label="xmax <= 16.0\ngini = 0.034\nsamples = 7656\nvalue = [105, 7, 21, 0, 7523]\nclass = 5", fillcolor="#e53cc1"] ;
10 -> 11 ;
12 [label="ymax <= 103.5\ngini = 0.571\nsamples = 7\nvalue = [4, 1, 0, 0, 2]\nclass = 1", fillcolor="#f5cdb0"] ;
11 -> 12 ;
13 [label="gini = 0.0\nsamples = 2\nvalue = [0, 0, 0, 0, 2]\nclass = 5", fillcolor="#e539c0"] ;
12 -> 13 ;
14 [label="ymin <= 102.5\ngini = 0.32\nsamples = 5\nvalue = [4, 1, 0, 0, 0]\nclass = 1", fillcolor="#eca06a"] ;
12 -> 14 ;
15 [label="gini = 0.0\nsamples = 3\nvalue = [3, 0, 0, 0, 0]\nclass = 1", fillcolor="#e58139"] ;
14 -> 15 ;
16 [label="xmax <= 11.5\ngini = 0.5\nsamples = 2\nvalue = [1, 1, 0, 0, 0]\nclass = 1", fillcolor="#ffffff"] ;
14 -> 16 ;
17 [label="gini = 0.0\nsamples = 1\nvalue = [0, 1, 0, 0, 0]\nclass = 2", fillcolor="#7be539"] ;
16 -> 17 ;
18 [label="gini = 0.0\nsamples = 1\nvalue = [1, 0, 0, 0, 0]\nclass = 1", fillcolor="#e58139"] ;
16 -> 18 ;
19 [label="ymin <= 94.5\ngini = 0.033\nsamples = 7649\nvalue = [101, 6, 21, 0, 7521]\nclass = 5", fillcolor="#e53cc1"] ;
11 -> 19 ;
20 [label="ymax <= 130.5\ngini = 0.013\nsamples = 5039\nvalue = [25, 1, 6, 0, 5007]\nclass = 5", fillcolor="#e53ac0"] ;
19 -> 20 ;
21 [label="ymax <= 113.5\ngini = 0.012\nsamples = 5038\nvalue = [24.0, 1.0, 6.0, 0.0, 5007.0]\nclass = 5", fillcolor="#e53ac0"] ;
20 -> 21 ;
22 [label="ymin <= 68.5\ngini = 0.011\nsamples = 4833\nvalue = [19.0, 1.0, 6.0, 0.0, 4807.0]\nclass = 5", fillcolor="#e53ac0"] ;
21 -> 22 ;
23 [label="ymax <= 58.5\ngini = 0.003\nsamples = 2291\nvalue = [1, 0, 3, 0, 2287]\nclass = 5", fillcolor="#e539c0"] ;
22 -> 23 ;
24 [label="ymin <= 45.0\ngini = 0.011\nsamples = 736\nvalue = [1, 0, 3, 0, 732]\nclass = 5", fillcolor="#e53ac0"] ;
23 -> 24 ;
25 [label="ymin <= 32.5\ngini = 0.008\nsamples = 735\nvalue = [1.0, 0.0, 2.0, 0.0, 732.0]\nclass = 5", fillcolor="#e53ac0"] ;
24 -> 25 ;
26 [label="ymax <= 20.5\ngini = 0.003\nsamples = 724\nvalue = [1, 0, 0, 0, 723]\nclass = 5", fillcolor="#e539c0"] ;
25 -> 26 ;
27 [label="ymax <= 18.5\ngini = 0.016\nsamples = 125\nvalue = [1, 0, 0, 0, 124]\nclass = 5", fillcolor="#e53bc1"] ;
26 -> 27 ;
28 [label="gini = 0.0\nsamples = 124\nvalue = [0, 0, 0, 0, 124]\nclass = 5", fillcolor="#e539c0"] ;
27 -> 28 ;
29 [label="gini = 0.0\nsamples = 1\nvalue = [1, 0, 0, 0, 0]\nclass = 1", fillcolor="#e58139"] ;
27 -> 29 ;
30 [label="gini = 0.0\nsamples = 599\nvalue = [0, 0, 0, 0, 599]\nclass = 5", fillcolor="#e539c0"] ;
26 -> 30 ;
31 [label="ymin <= 34.0\ngini = 0.298\nsamples = 11\nvalue = [0, 0, 2, 0, 9]\nclass = 5", fillcolor="#eb65ce"] ;
25 -> 31 ;
32 [label="xmax <= 268.5\ngini = 0.444\nsamples = 3\nvalue = [0, 0, 2, 0, 1]\nclass = 3", fillcolor="#9cf2e2"] ;
31 -> 32 ;
33 [label="gini = 0.0\nsamples = 2\nvalue = [0, 0, 2, 0, 0]\nclass = 3", fillcolor="#39e5c5"] ;
32 -> 33 ;
34 [label="gini = 0.0\nsamples = 1\nvalue = [0, 0, 0, 0, 1]\nclass = 5", fillcolor="#e539c0"] ;
32 -> 34 ;
35 [label="gini = 0.0\nsamples = 8\nvalue = [0, 0, 0, 0, 8]\nclass = 5", fillcolor="#e539c0"] ;
31 -> 35 ;
36 [label="gini = 0.0\nsamples = 1\nvalue = [0, 0, 1, 0, 0]\nclass = 3", fillcolor="#39e5c5"] ;
24 -> 36 ;
37 [label="gini = 0.0\nsamples = 1555\nvalue = [0, 0, 0, 0, 1555]\nclass = 5", fillcolor="#e539c0"] ;
23 -> 37 ;
38 [label="xmin <= 16.5\ngini = 0.017\nsamples = 2542\nvalue = [18, 1, 3, 0, 2520]\nclass = 5", fillcolor="#e53bc1"] ;
22 -> 38 ;
39 [label="ymax <= 107.5\ngini = 0.444\nsamples = 3\nvalue = [2, 0, 0, 0, 1]\nclass = 1", fillcolor="#f2c09c"] ;
38 -> 39 ;
40 [label="gini = 0.0\nsamples = 2\nvalue = [2, 0, 0, 0, 0]\nclass = 1", fillcolor="#e58139"] ;
39 -> 40 ;
41 [label="gini = 0.0\nsamples = 1\nvalue = [0, 0, 0, 0, 1]\nclass = 5", fillcolor="#e539c0"] ;
39 -> 41 ;
42 [label="ymax <= 78.0\ngini = 0.016\nsamples = 2539\nvalue = [16, 1, 3, 0, 2519]\nclass = 5", fillcolor="#e53bc0"] ;
38 -> 42 ;
43 [label="gini = 0.0\nsamples = 1\nvalue = [1, 0, 0, 0, 0]\nclass = 1", fillcolor="#e58139"] ;
42 -> 43 ;
44 [label="xmax <= 415.0\ngini = 0.015\nsamples = 2538\nvalue = [15, 1, 3, 0, 2519]\nclass = 5", fillcolor="#e53ac0"] ;
42 -> 44 ;
45 [label="xmin <= 33.0\ngini = 0.012\nsamples = 2514\nvalue = [11, 1, 3, 0, 2499]\nclass = 5", fillcolor="#e53ac0"] ;
44 -> 45 ;
46 [label="xmax <= 52.5\ngini = 0.219\nsamples = 8\nvalue = [0, 1, 0, 0, 7]\nclass = 5", fillcolor="#e955c9"] ;
45 -> 46 ;
47 [label="gini = 0.0\nsamples = 7\nvalue = [0, 0, 0, 0, 7]\nclass = 5", fillcolor="#e539c0"] ;
46 -> 47 ;
48 [label="gini = 0.0\nsamples = 1\nvalue = [0, 1, 0, 0, 0]\nclass = 2", fillcolor="#7be539"] ;
46 -> 48 ;
49 [label="ymax <= 88.5\ngini = 0.011\nsamples = 2506\nvalue = [11, 0, 3, 0, 2492]\nclass = 5", fillcolor="#e53ac0"] ;
45 -> 49 ;
50 [label="ymin <= 75.5\ngini = 0.076\nsamples = 76\nvalue = [3, 0, 0, 0, 73]\nclass = 5", fillcolor="#e641c3"] ;
49 -> 50 ;
51 [label="ymin <= 69.5\ngini = 0.028\nsamples = 70\nvalue = [1, 0, 0, 0, 69]\nclass = 5", fillcolor="#e53cc1"] ;
50 -> 51 ;
52 [label="xmax <= 282.5\ngini = 0.18\nsamples = 10\nvalue = [1, 0, 0, 0, 9]\nclass = 5", fillcolor="#e84fc7"] ;
51 -> 52 ;
53 [label="gini = 0.0\nsamples = 8\nvalue = [0, 0, 0, 0, 8]\nclass = 5", fillcolor="#e539c0"] ;
52 -> 53 ;
54 [label="xmax <= 294.5\ngini = 0.5\nsamples = 2\nvalue = [1, 0, 0, 0, 1]\nclass = 1", fillcolor="#ffffff"] ;
52 -> 54 ;
55 [label="gini = 0.0\nsamples = 1\nvalue = [1, 0, 0, 0, 0]\nclass = 1", fillcolor="#e58139"] ;
54 -> 55 ;
56 [label="gini = 0.0\nsamples = 1\nvalue = [0, 0, 0, 0, 1]\nclass = 5", fillcolor="#e539c0"] ;
54 -> 56 ;
57 [label="gini = 0.0\nsamples = 60\nvalue = [0, 0, 0, 0, 60]\nclass = 5", fillcolor="#e539c0"] ;
51 -> 57 ;
58 [label="xmin <= 135.0\ngini = 0.444\nsamples = 6\nvalue = [2, 0, 0, 0, 4]\nclass = 5", fillcolor="#f29ce0"] ;
50 -> 58 ;
59 [label="gini = 0.0\nsamples = 1\nvalue = [1, 0, 0, 0, 0]\nclass = 1", fillcolor="#e58139"] ;
58 -> 59 ;
60 [label="xmax <= 284.0\ngini = 0.32\nsamples = 5\nvalue = [1, 0, 0, 0, 4]\nclass = 5", fillcolor="#ec6ad0"] ;
58 -> 60 ;
61 [label="gini = 0.0\nsamples = 3\nvalue = [0, 0, 0, 0, 3]\nclass = 5", fillcolor="#e539c0"] ;
60 -> 61 ;
62 [label="xmax <= 302.5\ngini = 0.5\nsamples = 2\nvalue = [1, 0, 0, 0, 1]\nclass = 1", fillcolor="#ffffff"] ;
60 -> 62 ;
63 [label="gini = 0.0\nsamples = 1\nvalue = [1, 0, 0, 0, 0]\nclass = 1", fillcolor="#e58139"] ;
62 -> 63 ;
64 [label="gini = 0.0\nsamples = 1\nvalue = [0, 0, 0, 0, 1]\nclass = 5", fillcolor="#e539c0"] ;
62 -> 64 ;
65 [label="xmax <= 226.5\ngini = 0.009\nsamples = 2430\nvalue = [8, 0, 3, 0, 2419]\nclass = 5", fillcolor="#e53ac0"] ;
49 -> 65 ;
66 [label="ymin <= 93.5\ngini = 0.002\nsamples = 1602\nvalue = [1, 0, 1, 0, 1600]\nclass = 5", fillcolor="#e539c0"] ;
65 -> 66 ;
67 [label="xmin <= 209.5\ngini = 0.001\nsamples = 1476\nvalue = [0, 0, 1, 0, 1475]\nclass = 5", fillcolor="#e539c0"] ;
66 -> 67 ;
68 [label="gini = 0.0\nsamples = 1321\nvalue = [0, 0, 0, 0, 1321]\nclass = 5", fillcolor="#e539c0"] ;
67 -> 68 ;
69 [label="xmax <= 217.5\ngini = 0.013\nsamples = 155\nvalue = [0, 0, 1, 0, 154]\nclass = 5", fillcolor="#e53ac0"] ;
67 -> 69 ;
70 [label="ymin <= 85.0\ngini = 0.444\nsamples = 3\nvalue = [0, 0, 1, 0, 2]\nclass = 5", fillcolor="#f29ce0"] ;
69 -> 70 ;
71 [label="gini = 0.0\nsamples = 2\nvalue = [0, 0, 0, 0, 2]\nclass = 5", fillcolor="#e539c0"] ;
70 -> 71 ;
72 [label="gini = 0.0\nsamples = 1\nvalue = [0, 0, 1, 0, 0]\nclass = 3", fillcolor="#39e5c5"] ;
70 -> 72 ;
73 [label="gini = 0.0\nsamples = 152\nvalue = [0, 0, 0, 0, 152]\nclass = 5", fillcolor="#e539c0"] ;
69 -> 73 ;
74 [label="ymax <= 102.5\ngini = 0.016\nsamples = 126\nvalue = [1, 0, 0, 0, 125]\nclass = 5", fillcolor="#e53bc1"] ;
66 -> 74 ;
75 [label="xmax <= 171.0\ngini = 0.5\nsamples = 2\nvalue = [1, 0, 0, 0, 1]\nclass = 1", fillcolor="#ffffff"] ;
74 -> 75 ;
76 [label="gini = 0.0\nsamples = 1\nvalue = [1, 0, 0, 0, 0]\nclass = 1", fillcolor="#e58139"] ;
75 -> 76 ;
77 [label="gini = 0.0\nsamples = 1\nvalue = [0, 0, 0, 0, 1]\nclass = 5", fillcolor="#e539c0"] ;
75 -> 77 ;
78 [label="gini = 0.0\nsamples = 124\nvalue = [0, 0, 0, 0, 124]\nclass = 5", fillcolor="#e539c0"] ;
74 -> 78 ;
79 [label="xmin <= 212.0\ngini = 0.022\nsamples = 828\nvalue = [7.0, 0.0, 2.0, 0.0, 819.0]\nclass = 5", fillcolor="#e53bc1"] ;
65 -> 79 ;
80 [label="gini = 0.0\nsamples = 2\nvalue = [2, 0, 0, 0, 0]\nclass = 1", fillcolor="#e58139"] ;
79 -> 80 ;
81 [label="xmin <= 216.5\ngini = 0.017\nsamples = 826\nvalue = [5, 0, 2, 0, 819]\nclass = 5", fillcolor="#e53bc1"] ;
79 -> 81 ;
82 [label="ymin <= 82.0\ngini = 0.142\nsamples = 13\nvalue = [0, 0, 1, 0, 12]\nclass = 5", fillcolor="#e749c5"] ;
81 -> 82 ;
83 [label="xmax <= 227.5\ngini = 0.444\nsamples = 3\nvalue = [0, 0, 1, 0, 2]\nclass = 5", fillcolor="#f29ce0"] ;
82 -> 83 ;
84 [label="gini = 0.0\nsamples = 1\nvalue = [0, 0, 1, 0, 0]\nclass = 3", fillcolor="#39e5c5"] ;
83 -> 84 ;
85 [label="gini = 0.0\nsamples = 2\nvalue = [0, 0, 0, 0, 2]\nclass = 5", fillcolor="#e539c0"] ;
83 -> 85 ;
86 [label="gini = 0.0\nsamples = 10\nvalue = [0, 0, 0, 0, 10]\nclass = 5", fillcolor="#e539c0"] ;
82 -> 86 ;
87 [label="ymax <= 100.5\ngini = 0.015\nsamples = 813\nvalue = [5, 0, 1, 0, 807]\nclass = 5", fillcolor="#e53ac0"] ;
81 -> 87 ;
88 [label="xmax <= 321.5\ngini = 0.033\nsamples = 300\nvalue = [4, 0, 1, 0, 295]\nclass = 5", fillcolor="#e53cc1"] ;
87 -> 88 ;
89 [label="ymax <= 99.5\ngini = 0.016\nsamples = 253\nvalue = [2.0, 0.0, 0.0, 0.0, 251.0]\nclass = 5", fillcolor="#e53bc1"] ;
88 -> 89 ;
90 [label="xmin <= 222.5\ngini = 0.009\nsamples = 226\nvalue = [1, 0, 0, 0, 225]\nclass = 5", fillcolor="#e53ac0"] ;
89 -> 90 ;
91 [label="xmin <= 221.5\ngini = 0.054\nsamples = 36\nvalue = [1, 0, 0, 0, 35]\nclass = 5", fillcolor="#e63fc2"] ;
90 -> 91 ;
92 [label="gini = 0.0\nsamples = 35\nvalue = [0, 0, 0, 0, 35]\nclass = 5", fillcolor="#e539c0"] ;
91 -> 92 ;
93 [label="gini = 0.0\nsamples = 1\nvalue = [1, 0, 0, 0, 0]\nclass = 1", fillcolor="#e58139"] ;
91 -> 93 ;
94 [label="gini = 0.0\nsamples = 190\nvalue = [0, 0, 0, 0, 190]\nclass = 5", fillcolor="#e539c0"] ;
90 -> 94 ;
95 [label="ymin <= 77.0\ngini = 0.071\nsamples = 27\nvalue = [1, 0, 0, 0, 26]\nclass = 5", fillcolor="#e641c2"] ;
89 -> 95 ;
96 [label="ymin <= 74.5\ngini = 0.375\nsamples = 4\nvalue = [1, 0, 0, 0, 3]\nclass = 5", fillcolor="#ee7bd5"] ;
95 -> 96 ;
97 [label="gini = 0.0\nsamples = 3\nvalue = [0, 0, 0, 0, 3]\nclass = 5", fillcolor="#e539c0"] ;
96 -> 97 ;
98 [label="gini = 0.0\nsamples = 1\nvalue = [1, 0, 0, 0, 0]\nclass = 1", fillcolor="#e58139"] ;
96 -> 98 ;
99 [label="gini = 0.0\nsamples = 23\nvalue = [0, 0, 0, 0, 23]\nclass = 5", fillcolor="#e539c0"] ;
95 -> 99 ;
100 [label="xmin <= 311.0\ngini = 0.121\nsamples = 47\nvalue = [2, 0, 1, 0, 44]\nclass = 5", fillcolor="#e746c4"] ;
88 -> 100 ;
101 [label="ymax <= 96.0\ngini = 0.5\nsamples = 2\nvalue = [1, 0, 1, 0, 0]\nclass = 1", fillcolor="#ffffff"] ;
100 -> 101 ;
102 [label="gini = 0.0\nsamples = 1\nvalue = [1, 0, 0, 0, 0]\nclass = 1", fillcolor="#e58139"] ;
101 -> 102 ;
103 [label="gini = 0.0\nsamples = 1\nvalue = [0, 0, 1, 0, 0]\nclass = 3", fillcolor="#39e5c5"] ;
101 -> 103 ;
104 [label="ymin <= 85.5\ngini = 0.043\nsamples = 45\nvalue = [1, 0, 0, 0, 44]\nclass = 5", fillcolor="#e63dc1"] ;
100 -> 104 ;
105 [label="gini = 0.0\nsamples = 39\nvalue = [0, 0, 0, 0, 39]\nclass = 5", fillcolor="#e539c0"] ;
104 -> 105 ;
106 [label="ymax <= 96.0\ngini = 0.278\nsamples = 6\nvalue = [1, 0, 0, 0, 5]\nclass = 5", fillcolor="#ea61cd"] ;
104 -> 106 ;
107 [label="gini = 0.0\nsamples = 1\nvalue = [1, 0, 0, 0, 0]\nclass = 1", fillcolor="#e58139"] ;
106 -> 107 ;
108 [label="gini = 0.0\nsamples = 5\nvalue = [0, 0, 0, 0, 5]\nclass = 5", fillcolor="#e539c0"] ;
106 -> 108 ;
109 [label="ymin <= 91.5\ngini = 0.004\nsamples = 513\nvalue = [1, 0, 0, 0, 512]\nclass = 5", fillcolor="#e539c0"] ;
87 -> 109 ;
110 [label="gini = 0.0\nsamples = 417\nvalue = [0, 0, 0, 0, 417]\nclass = 5", fillcolor="#e539c0"] ;
109 -> 110 ;
111 [label="ymax <= 104.5\ngini = 0.021\nsamples = 96\nvalue = [1, 0, 0, 0, 95]\nclass = 5", fillcolor="#e53bc1"] ;
109 -> 111 ;
112 [label="xmax <= 275.0\ngini = 0.142\nsamples = 13\nvalue = [1, 0, 0, 0, 12]\nclass = 5", fillcolor="#e749c5"] ;
111 -> 112 ;
113 [label="gini = 0.0\nsamples = 9\nvalue = [0, 0, 0, 0, 9]\nclass = 5", fillcolor="#e539c0"] ;
112 -> 113 ;
114 [label="ymax <= 103.5\ngini = 0.375\nsamples = 4\nvalue = [1, 0, 0, 0, 3]\nclass = 5", fillcolor="#ee7bd5"] ;
112 -> 114 ;
115 [label="gini = 0.0\nsamples = 3\nvalue = [0, 0, 0, 0, 3]\nclass = 5", fillcolor="#e539c0"] ;
114 -> 115 ;
116 [label="gini = 0.0\nsamples = 1\nvalue = [1, 0, 0, 0, 0]\nclass = 1", fillcolor="#e58139"] ;
114 -> 116 ;
117 [label="gini = 0.0\nsamples = 83\nvalue = [0, 0, 0, 0, 83]\nclass = 5", fillcolor="#e539c0"] ;
111 -> 117 ;
118 [label="xmin <= 389.0\ngini = 0.278\nsamples = 24\nvalue = [4, 0, 0, 0, 20]\nclass = 5", fillcolor="#ea61cd"] ;
44 -> 118 ;
119 [label="gini = 0.0\nsamples = 3\nvalue = [3, 0, 0, 0, 0]\nclass = 1", fillcolor="#e58139"] ;
118 -> 119 ;
120 [label="ymax <= 90.5\ngini = 0.091\nsamples = 21\nvalue = [1, 0, 0, 0, 20]\nclass = 5", fillcolor="#e643c3"] ;
118 -> 120 ;
121 [label="xmin <= 427.0\ngini = 0.5\nsamples = 2\nvalue = [1, 0, 0, 0, 1]\nclass = 1", fillcolor="#ffffff"] ;
120 -> 121 ;
122 [label="gini = 0.0\nsamples = 1\nvalue = [0, 0, 0, 0, 1]\nclass = 5", fillcolor="#e539c0"] ;
121 -> 122 ;
123 [label="gini = 0.0\nsamples = 1\nvalue = [1, 0, 0, 0, 0]\nclass = 1", fillcolor="#e58139"] ;
121 -> 123 ;
124 [label="gini = 0.0\nsamples = 19\nvalue = [0, 0, 0, 0, 19]\nclass = 5", fillcolor="#e539c0"] ;
120 -> 124 ;
125 [label="ymin <= 71.0\ngini = 0.048\nsamples = 205\nvalue = [5, 0, 0, 0, 200]\nclass = 5", fillcolor="#e63ec2"] ;
21 -> 125 ;
126 [label="ymax <= 120.0\ngini = 0.5\nsamples = 2\nvalue = [1, 0, 0, 0, 1]\nclass = 1", fillcolor="#ffffff"] ;
125 -> 126 ;
127 [label="gini = 0.0\nsamples = 1\nvalue = [1, 0, 0, 0, 0]\nclass = 1", fillcolor="#e58139"] ;
126 -> 127 ;
128 [label="gini = 0.0\nsamples = 1\nvalue = [0, 0, 0, 0, 1]\nclass = 5", fillcolor="#e539c0"] ;
126 -> 128 ;
129 [label="xmin <= 199.5\ngini = 0.039\nsamples = 203\nvalue = [4, 0, 0, 0, 199]\nclass = 5", fillcolor="#e63dc1"] ;
125 -> 129 ;
130 [label="xmax <= 215.5\ngini = 0.165\nsamples = 22\nvalue = [2, 0, 0, 0, 20]\nclass = 5", fillcolor="#e84dc6"] ;
129 -> 130 ;
131 [label="gini = 0.0\nsamples = 20\nvalue = [0, 0, 0, 0, 20]\nclass = 5", fillcolor="#e539c0"] ;
130 -> 131 ;
132 [label="gini = 0.0\nsamples = 2\nvalue = [2, 0, 0, 0, 0]\nclass = 1", fillcolor="#e58139"] ;
130 -> 132 ;
133 [label="ymax <= 117.5\ngini = 0.022\nsamples = 181\nvalue = [2, 0, 0, 0, 179]\nclass = 5", fillcolor="#e53bc1"] ;
129 -> 133 ;
134 [label="gini = 0.0\nsamples = 132\nvalue = [0, 0, 0, 0, 132]\nclass = 5", fillcolor="#e539c0"] ;
133 -> 134 ;
135 [label="ymax <= 119.5\ngini = 0.078\nsamples = 49\nvalue = [2.0, 0.0, 0.0, 0.0, 47.0]\nclass = 5", fillcolor="#e641c3"] ;
133 -> 135 ;
136 [label="ymin <= 90.5\ngini = 0.198\nsamples = 18\nvalue = [2, 0, 0, 0, 16]\nclass = 5", fillcolor="#e852c8"] ;
135 -> 136 ;
137 [label="gini = 0.0\nsamples = 9\nvalue = [0, 0, 0, 0, 9]\nclass = 5", fillcolor="#e539c0"] ;
136 -> 137 ;
138 [label="ymin <= 92.5\ngini = 0.346\nsamples = 9\nvalue = [2, 0, 0, 0, 7]\nclass = 5", fillcolor="#ec72d2"] ;
136 -> 138 ;
139 [label="gini = 0.0\nsamples = 2\nvalue = [2, 0, 0, 0, 0]\nclass = 1", fillcolor="#e58139"] ;
138 -> 139 ;
140 [label="gini = 0.0\nsamples = 7\nvalue = [0, 0, 0, 0, 7]\nclass = 5", fillcolor="#e539c0"] ;
138 -> 140 ;
141 [label="gini = 0.0\nsamples = 31\nvalue = [0, 0, 0, 0, 31]\nclass = 5", fillcolor="#e539c0"] ;
135 -> 141 ;
142 [label="gini = 0.0\nsamples = 1\nvalue = [1, 0, 0, 0, 0]\nclass = 1", fillcolor="#e58139"] ;
20 -> 142 ;
143 [label="xmin <= 3.5\ngini = 0.071\nsamples = 2610\nvalue = [76, 5, 15, 0, 2514]\nclass = 5", fillcolor="#e641c2"] ;
19 -> 143 ;
144 [label="ymax <= 114.5\ngini = 0.375\nsamples = 4\nvalue = [3, 1, 0, 0, 0]\nclass = 1", fillcolor="#eeab7b"] ;
143 -> 144 ;
145 [label="gini = 0.0\nsamples = 1\nvalue = [0, 1, 0, 0, 0]\nclass = 2", fillcolor="#7be539"] ;
144 -> 145 ;
146 [label="gini = 0.0\nsamples = 3\nvalue = [3, 0, 0, 0, 0]\nclass = 1", fillcolor="#e58139"] ;
144 -> 146 ;
147 [label="xmin <= 168.5\ngini = 0.069\nsamples = 2606\nvalue = [73, 4, 15, 0, 2514]\nclass = 5", fillcolor="#e640c2"] ;
143 -> 147 ;
148 [label="xmax <= 177.5\ngini = 0.169\nsamples = 415\nvalue = [32, 1, 5, 0, 377]\nclass = 5", fillcolor="#e84dc6"] ;
147 -> 148 ;
149 [label="xmax <= 165.5\ngini = 0.154\nsamples = 411\nvalue = [28, 1, 5, 0, 377]\nclass = 5", fillcolor="#e74bc6"] ;
148 -> 149 ;
150 [label="ymax <= 124.5\ngini = 0.112\nsamples = 355\nvalue = [19, 1, 1, 0, 334]\nclass = 5", fillcolor="#e745c4"] ;
149 -> 150 ;
151 [label="ymin <= 99.5\ngini = 0.09\nsamples = 340\nvalue = [15.0, 0.0, 1.0, 0.0, 324.0]\nclass = 5", fillcolor="#e643c3"] ;
150 -> 151 ;
152 [label="ymax <= 105.5\ngini = 0.012\nsamples = 159\nvalue = [1, 0, 0, 0, 158]\nclass = 5", fillcolor="#e53ac0"] ;
151 -> 152 ;
153 [label="xmax <= 147.0\ngini = 0.111\nsamples = 17\nvalue = [1, 0, 0, 0, 16]\nclass = 5", fillcolor="#e745c4"] ;
152 -> 153 ;
154 [label="gini = 0.0\nsamples = 15\nvalue = [0, 0, 0, 0, 15]\nclass = 5", fillcolor="#e539c0"] ;
153 -> 154 ;
155 [label="xmin <= 139.5\ngini = 0.5\nsamples = 2\nvalue = [1, 0, 0, 0, 1]\nclass = 1", fillcolor="#ffffff"] ;
153 -> 155 ;
156 [label="gini = 0.0\nsamples = 1\nvalue = [1, 0, 0, 0, 0]\nclass = 1", fillcolor="#e58139"] ;
155 -> 156 ;
157 [label="gini = 0.0\nsamples = 1\nvalue = [0, 0, 0, 0, 1]\nclass = 5", fillcolor="#e539c0"] ;
155 -> 157 ;
158 [label="gini = 0.0\nsamples = 142\nvalue = [0, 0, 0, 0, 142]\nclass = 5", fillcolor="#e539c0"] ;
152 -> 158 ;
159 [label="ymax <= 114.5\ngini = 0.153\nsamples = 181\nvalue = [14, 0, 1, 0, 166]\nclass = 5", fillcolor="#e74bc6"] ;
151 -> 159 ;
160 [label="xmin <= 120.5\ngini = 0.343\nsamples = 41\nvalue = [9, 0, 0, 0, 32]\nclass = 5", fillcolor="#ec71d2"] ;
159 -> 160 ;
161 [label="xmax <= 132.0\ngini = 0.475\nsamples = 18\nvalue = [7, 0, 0, 0, 11]\nclass = 5", fillcolor="#f6b7e8"] ;
160 -> 161 ;
162 [label="ymax <= 112.5\ngini = 0.43\nsamples = 16\nvalue = [5, 0, 0, 0, 11]\nclass = 5", fillcolor="#f193dd"] ;
161 -> 162 ;
163 [label="gini = 0.0\nsamples = 4\nvalue = [0, 0, 0, 0, 4]\nclass = 5", fillcolor="#e539c0"] ;
162 -> 163 ;
164 [label="xmax <= 83.5\ngini = 0.486\nsamples = 12\nvalue = [5, 0, 0, 0, 7]\nclass = 5", fillcolor="#f8c6ed"] ;
162 -> 164 ;
165 [label="gini = 0.0\nsamples = 3\nvalue = [0, 0, 0, 0, 3]\nclass = 5", fillcolor="#e539c0"] ;
164 -> 165 ;
166 [label="xmin <= 107.5\ngini = 0.494\nsamples = 9\nvalue = [5, 0, 0, 0, 4]\nclass = 1", fillcolor="#fae6d7"] ;
164 -> 166 ;
167 [label="xmax <= 104.5\ngini = 0.408\nsamples = 7\nvalue = [5, 0, 0, 0, 2]\nclass = 1", fillcolor="#efb388"] ;
166 -> 167 ;
168 [label="xmax <= 88.5\ngini = 0.5\nsamples = 4\nvalue = [2, 0, 0, 0, 2]\nclass = 1", fillcolor="#ffffff"] ;
167 -> 168 ;
169 [label="gini = 0.0\nsamples = 2\nvalue = [2, 0, 0, 0, 0]\nclass = 1", fillcolor="#e58139"] ;
168 -> 169 ;
170 [label="gini = 0.0\nsamples = 2\nvalue = [0, 0, 0, 0, 2]\nclass = 5", fillcolor="#e539c0"] ;
168 -> 170 ;
171 [label="gini = 0.0\nsamples = 3\nvalue = [3, 0, 0, 0, 0]\nclass = 1", fillcolor="#e58139"] ;
167 -> 171 ;
172 [label="gini = 0.0\nsamples = 2\nvalue = [0, 0, 0, 0, 2]\nclass = 5", fillcolor="#e539c0"] ;
166 -> 172 ;
173 [label="gini = 0.0\nsamples = 2\nvalue = [2, 0, 0, 0, 0]\nclass = 1", fillcolor="#e58139"] ;
161 -> 173 ;
174 [label="ymax <= 109.5\ngini = 0.159\nsamples = 23\nvalue = [2, 0, 0, 0, 21]\nclass = 5", fillcolor="#e74cc6"] ;
160 -> 174 ;
175 [label="xmin <= 135.5\ngini = 0.5\nsamples = 2\nvalue = [1, 0, 0, 0, 1]\nclass = 1", fillcolor="#ffffff"] ;
174 -> 175 ;
176 [label="gini = 0.0\nsamples = 1\nvalue = [0, 0, 0, 0, 1]\nclass = 5", fillcolor="#e539c0"] ;
175 -> 176 ;
177 [label="gini = 0.0\nsamples = 1\nvalue = [1, 0, 0, 0, 0]\nclass = 1", fillcolor="#e58139"] ;
175 -> 177 ;
178 [label="ymax <= 111.5\ngini = 0.091\nsamples = 21\nvalue = [1, 0, 0, 0, 20]\nclass = 5", fillcolor="#e643c3"] ;
174 -> 178 ;
179 [label="ymin <= 101.5\ngini = 0.278\nsamples = 6\nvalue = [1, 0, 0, 0, 5]\nclass = 5", fillcolor="#ea61cd"] ;
178 -> 179 ;
180 [label="gini = 0.0\nsamples = 4\nvalue = [0, 0, 0, 0, 4]\nclass = 5", fillcolor="#e539c0"] ;
179 -> 180 ;
181 [label="ymin <= 102.5\ngini = 0.5\nsamples = 2\nvalue = [1, 0, 0, 0, 1]\nclass = 1", fillcolor="#ffffff"] ;
179 -> 181 ;
182 [label="gini = 0.0\nsamples = 1\nvalue = [1, 0, 0, 0, 0]\nclass = 1", fillcolor="#e58139"] ;
181 -> 182 ;
183 [label="gini = 0.0\nsamples = 1\nvalue = [0, 0, 0, 0, 1]\nclass = 5", fillcolor="#e539c0"] ;
181 -> 183 ;
184 [label="gini = 0.0\nsamples = 15\nvalue = [0, 0, 0, 0, 15]\nclass = 5", fillcolor="#e539c0"] ;
178 -> 184 ;
185 [label="xmin <= 16.0\ngini = 0.083\nsamples = 140\nvalue = [5, 0, 1, 0, 134]\nclass = 5", fillcolor="#e642c3"] ;
159 -> 185 ;
186 [label="ymin <= 103.5\ngini = 0.5\nsamples = 2\nvalue = [0, 0, 1, 0, 1]\nclass = 3", fillcolor="#ffffff"] ;
185 -> 186 ;
187 [label="gini = 0.0\nsamples = 1\nvalue = [0, 0, 0, 0, 1]\nclass = 5", fillcolor="#e539c0"] ;
186 -> 187 ;
188 [label="gini = 0.0\nsamples = 1\nvalue = [0, 0, 1, 0, 0]\nclass = 3", fillcolor="#39e5c5"] ;
186 -> 188 ;
189 [label="xmin <= 109.0\ngini = 0.07\nsamples = 138\nvalue = [5, 0, 0, 0, 133]\nclass = 5", fillcolor="#e640c2"] ;
185 -> 189 ;
190 [label="xmax <= 117.5\ngini = 0.126\nsamples = 74\nvalue = [5, 0, 0, 0, 69]\nclass = 5", fillcolor="#e747c5"] ;
189 -> 190 ;
191 [label="ymax <= 118.5\ngini = 0.08\nsamples = 72\nvalue = [3, 0, 0, 0, 69]\nclass = 5", fillcolor="#e642c3"] ;
190 -> 191 ;
192 [label="ymax <= 116.5\ngini = 0.165\nsamples = 33\nvalue = [3, 0, 0, 0, 30]\nclass = 5", fillcolor="#e84dc6"] ;
191 -> 192 ;
193 [label="gini = 0.0\nsamples = 15\nvalue = [0, 0, 0, 0, 15]\nclass = 5", fillcolor="#e539c0"] ;
192 -> 193 ;
194 [label="xmin <= 31.5\ngini = 0.278\nsamples = 18\nvalue = [3, 0, 0, 0, 15]\nclass = 5", fillcolor="#ea61cd"] ;
192 -> 194 ;
195 [label="gini = 0.0\nsamples = 1\nvalue = [1, 0, 0, 0, 0]\nclass = 1", fillcolor="#e58139"] ;
194 -> 195 ;
196 [label="xmax <= 89.5\ngini = 0.208\nsamples = 17\nvalue = [2, 0, 0, 0, 15]\nclass = 5", fillcolor="#e853c8"] ;
194 -> 196 ;
197 [label="gini = 0.0\nsamples = 8\nvalue = [0, 0, 0, 0, 8]\nclass = 5", fillcolor="#e539c0"] ;
196 -> 197 ;
198 [label="xmin <= 79.0\ngini = 0.346\nsamples = 9\nvalue = [2, 0, 0, 0, 7]\nclass = 5", fillcolor="#ec72d2"] ;
196 -> 198 ;
199 [label="gini = 0.0\nsamples = 2\nvalue = [2, 0, 0, 0, 0]\nclass = 1", fillcolor="#e58139"] ;
198 -> 199 ;
200 [label="gini = 0.0\nsamples = 7\nvalue = [0, 0, 0, 0, 7]\nclass = 5", fillcolor="#e539c0"] ;
198 -> 200 ;
201 [label="gini = 0.0\nsamples = 39\nvalue = [0, 0, 0, 0, 39]\nclass = 5", fillcolor="#e539c0"] ;
191 -> 201 ;
202 [label="gini = 0.0\nsamples = 2\nvalue = [2, 0, 0, 0, 0]\nclass = 1", fillcolor="#e58139"] ;
190 -> 202 ;
203 [label="gini = 0.0\nsamples = 64\nvalue = [0, 0, 0, 0, 64]\nclass = 5", fillcolor="#e539c0"] ;
189 -> 203 ;
204 [label="xmin <= 29.5\ngini = 0.48\nsamples = 15\nvalue = [4, 1, 0, 0, 10]\nclass = 5", fillcolor="#f193dd"] ;
150 -> 204 ;
205 [label="gini = 0.0\nsamples = 2\nvalue = [2, 0, 0, 0, 0]\nclass = 1", fillcolor="#e58139"] ;
204 -> 205 ;
206 [label="ymax <= 130.5\ngini = 0.379\nsamples = 13\nvalue = [2, 1, 0, 0, 10]\nclass = 5", fillcolor="#ec6fd1"] ;
204 -> 206 ;
207 [label="xmax <= 96.5\ngini = 0.278\nsamples = 12\nvalue = [2, 0, 0, 0, 10]\nclass = 5", fillcolor="#ea61cd"] ;
206 -> 207 ;
208 [label="gini = 0.0\nsamples = 6\nvalue = [0, 0, 0, 0, 6]\nclass = 5", fillcolor="#e539c0"] ;
207 -> 208 ;
209 [label="xmin <= 113.5\ngini = 0.444\nsamples = 6\nvalue = [2, 0, 0, 0, 4]\nclass = 5", fillcolor="#f29ce0"] ;
207 -> 209 ;
210 [label="ymin <= 101.5\ngini = 0.444\nsamples = 3\nvalue = [2, 0, 0, 0, 1]\nclass = 1", fillcolor="#f2c09c"] ;
209 -> 210 ;
211 [label="gini = 0.0\nsamples = 1\nvalue = [0, 0, 0, 0, 1]\nclass = 5", fillcolor="#e539c0"] ;
210 -> 211 ;
212 [label="gini = 0.0\nsamples = 2\nvalue = [2, 0, 0, 0, 0]\nclass = 1", fillcolor="#e58139"] ;
210 -> 212 ;
213 [label="gini = 0.0\nsamples = 3\nvalue = [0, 0, 0, 0, 3]\nclass = 5", fillcolor="#e539c0"] ;
209 -> 213 ;
214 [label="gini = 0.0\nsamples = 1\nvalue = [0, 1, 0, 0, 0]\nclass = 2", fillcolor="#7be539"] ;
206 -> 214 ;
215 [label="xmin <= 157.5\ngini = 0.379\nsamples = 56\nvalue = [9, 0, 4, 0, 43]\nclass = 5", fillcolor="#ec70d1"] ;
149 -> 215 ;
216 [label="xmax <= 168.5\ngini = 0.346\nsamples = 9\nvalue = [7, 0, 0, 0, 2]\nclass = 1", fillcolor="#eca572"] ;
215 -> 216 ;
217 [label="xmin <= 156.0\ngini = 0.48\nsamples = 5\nvalue = [3, 0, 0, 0, 2]\nclass = 1", fillcolor="#f6d5bd"] ;
216 -> 217 ;
218 [label="gini = 0.0\nsamples = 2\nvalue = [2, 0, 0, 0, 0]\nclass = 1", fillcolor="#e58139"] ;
217 -> 218 ;
219 [label="ymin <= 99.5\ngini = 0.444\nsamples = 3\nvalue = [1, 0, 0, 0, 2]\nclass = 5", fillcolor="#f29ce0"] ;
217 -> 219 ;
220 [label="gini = 0.0\nsamples = 1\nvalue = [0, 0, 0, 0, 1]\nclass = 5", fillcolor="#e539c0"] ;
219 -> 220 ;
221 [label="ymax <= 113.5\ngini = 0.5\nsamples = 2\nvalue = [1, 0, 0, 0, 1]\nclass = 1", fillcolor="#ffffff"] ;
219 -> 221 ;
222 [label="gini = 0.0\nsamples = 1\nvalue = [1, 0, 0, 0, 0]\nclass = 1", fillcolor="#e58139"] ;
221 -> 222 ;
223 [label="gini = 0.0\nsamples = 1\nvalue = [0, 0, 0, 0, 1]\nclass = 5", fillcolor="#e539c0"] ;
221 -> 223 ;
224 [label="gini = 0.0\nsamples = 4\nvalue = [4, 0, 0, 0, 0]\nclass = 1", fillcolor="#e58139"] ;
216 -> 224 ;
225 [label="ymax <= 119.5\ngini = 0.23\nsamples = 47\nvalue = [2, 0, 4, 0, 41]\nclass = 5", fillcolor="#e955c9"] ;
215 -> 225 ;
226 [label="xmax <= 175.5\ngini = 0.199\nsamples = 46\nvalue = [2, 0, 3, 0, 41]\nclass = 5", fillcolor="#e850c7"] ;
225 -> 226 ;
227 [label="ymax <= 106.5\ngini = 0.138\nsamples = 41\nvalue = [1, 0, 2, 0, 38]\nclass = 5", fillcolor="#e748c5"] ;
226 -> 227 ;
228 [label="ymin <= 97.5\ngini = 0.444\nsamples = 3\nvalue = [1, 0, 0, 0, 2]\nclass = 5", fillcolor="#f29ce0"] ;
227 -> 228 ;
229 [label="gini = 0.0\nsamples = 2\nvalue = [0, 0, 0, 0, 2]\nclass = 5", fillcolor="#e539c0"] ;
228 -> 229 ;
230 [label="gini = 0.0\nsamples = 1\nvalue = [1, 0, 0, 0, 0]\nclass = 1", fillcolor="#e58139"] ;
228 -> 230 ;
231 [label="ymax <= 113.5\ngini = 0.1\nsamples = 38\nvalue = [0, 0, 2, 0, 36]\nclass = 5", fillcolor="#e644c4"] ;
227 -> 231 ;
232 [label="gini = 0.0\nsamples = 22\nvalue = [0, 0, 0, 0, 22]\nclass = 5", fillcolor="#e539c0"] ;
231 -> 232 ;
233 [label="ymin <= 102.5\ngini = 0.219\nsamples = 16\nvalue = [0, 0, 2, 0, 14]\nclass = 5", fillcolor="#e955c9"] ;
231 -> 233 ;
234 [label="xmax <= 170.5\ngini = 0.375\nsamples = 8\nvalue = [0, 0, 2, 0, 6]\nclass = 5", fillcolor="#ee7bd5"] ;
233 -> 234 ;
235 [label="xmin <= 158.5\ngini = 0.444\nsamples = 3\nvalue = [0, 0, 2, 0, 1]\nclass = 3", fillcolor="#9cf2e2"] ;
234 -> 235 ;
236 [label="gini = 0.0\nsamples = 1\nvalue = [0, 0, 0, 0, 1]\nclass = 5", fillcolor="#e539c0"] ;
235 -> 236 ;
237 [label="gini = 0.0\nsamples = 2\nvalue = [0, 0, 2, 0, 0]\nclass = 3", fillcolor="#39e5c5"] ;
235 -> 237 ;
238 [label="gini = 0.0\nsamples = 5\nvalue = [0, 0, 0, 0, 5]\nclass = 5", fillcolor="#e539c0"] ;
234 -> 238 ;
239 [label="gini = 0.0\nsamples = 8\nvalue = [0, 0, 0, 0, 8]\nclass = 5", fillcolor="#e539c0"] ;
233 -> 239 ;
240 [label="xmin <= 167.5\ngini = 0.56\nsamples = 5\nvalue = [1, 0, 1, 0, 3]\nclass = 5", fillcolor="#f29ce0"] ;
226 -> 240 ;
241 [label="gini = 0.0\nsamples = 1\nvalue = [0, 0, 1, 0, 0]\nclass = 3", fillcolor="#39e5c5"] ;
240 -> 241 ;
242 [label="xmax <= 176.5\ngini = 0.375\nsamples = 4\nvalue = [1, 0, 0, 0, 3]\nclass = 5", fillcolor="#ee7bd5"] ;
240 -> 242 ;
243 [label="ymax <= 115.5\ngini = 0.5\nsamples = 2\nvalue = [1, 0, 0, 0, 1]\nclass = 1", fillcolor="#ffffff"] ;
242 -> 243 ;
244 [label="gini = 0.0\nsamples = 1\nvalue = [1, 0, 0, 0, 0]\nclass = 1", fillcolor="#e58139"] ;
243 -> 244 ;
245 [label="gini = 0.0\nsamples = 1\nvalue = [0, 0, 0, 0, 1]\nclass = 5", fillcolor="#e539c0"] ;
243 -> 245 ;
246 [label="gini = 0.0\nsamples = 2\nvalue = [0, 0, 0, 0, 2]\nclass = 5", fillcolor="#e539c0"] ;
242 -> 246 ;
247 [label="gini = 0.0\nsamples = 1\nvalue = [0, 0, 1, 0, 0]\nclass = 3", fillcolor="#39e5c5"] ;
225 -> 247 ;
248 [label="gini = 0.0\nsamples = 4\nvalue = [4, 0, 0, 0, 0]\nclass = 1", fillcolor="#e58139"] ;
148 -> 248 ;
249 [label="xmax <= 478.5\ngini = 0.048\nsamples = 2191\nvalue = [41.0, 3.0, 10.0, 0.0, 2137.0]\nclass = 5", fillcolor="#e63ec2"] ;
147 -> 249 ;
250 [label="ymax <= 102.5\ngini = 0.047\nsamples = 2188\nvalue = [39.0, 3.0, 10.0, 0.0, 2136.0]\nclass = 5", fillcolor="#e63ec2"] ;
249 -> 250 ;
251 [label="gini = 0.0\nsamples = 1\nvalue = [1, 0, 0, 0, 0]\nclass = 1", fillcolor="#e58139"] ;
250 -> 251 ;
252 [label="ymax <= 127.5\ngini = 0.046\nsamples = 2187\nvalue = [38, 3, 10, 0, 2136]\nclass = 5", fillcolor="#e63ec1"] ;
250 -> 252 ;
253 [label="xmax <= 477.5\ngini = 0.042\nsamples = 2144\nvalue = [35, 1, 10, 0, 2098]\nclass = 5", fillcolor="#e63dc1"] ;
252 -> 253 ;
254 [label="ymax <= 104.5\ngini = 0.041\nsamples = 2143\nvalue = [34, 1, 10, 0, 2098]\nclass = 5", fillcolor="#e63dc1"] ;
253 -> 254 ;
255 [label="ymin <= 96.0\ngini = 0.444\nsamples = 3\nvalue = [1, 0, 0, 0, 2]\nclass = 5", fillcolor="#f29ce0"] ;
254 -> 255 ;
256 [label="gini = 0.0\nsamples = 2\nvalue = [0, 0, 0, 0, 2]\nclass = 5", fillcolor="#e539c0"] ;
255 -> 256 ;
257 [label="gini = 0.0\nsamples = 1\nvalue = [1, 0, 0, 0, 0]\nclass = 1", fillcolor="#e58139"] ;
255 -> 257 ;
258 [label="ymax <= 121.5\ngini = 0.04\nsamples = 2140\nvalue = [33, 1, 10, 0, 2096]\nclass = 5", fillcolor="#e63dc1"] ;
254 -> 258 ;
259 [label="xmax <= 376.5\ngini = 0.051\nsamples = 1529\nvalue = [29.0, 1.0, 10.0, 0.0, 1489.0]\nclass = 5", fillcolor="#e63ec2"] ;
258 -> 259 ;
260 [label="xmax <= 324.5\ngini = 0.045\nsamples = 1477\nvalue = [23, 1, 10, 0, 1443]\nclass = 5", fillcolor="#e63ec1"] ;
259 -> 260 ;
261 [label="xmin <= 275.5\ngini = 0.036\nsamples = 1298\nvalue = [19, 1, 4, 0, 1274]\nclass = 5", fillcolor="#e53dc1"] ;
260 -> 261 ;
262 [label="xmax <= 291.0\ngini = 0.051\nsamples = 917\nvalue = [19, 1, 4, 0, 893]\nclass = 5", fillcolor="#e63ec2"] ;
261 -> 262 ;
263 [label="xmax <= 281.5\ngini = 0.045\nsamples = 914\nvalue = [16, 1, 4, 0, 893]\nclass = 5", fillcolor="#e63ec1"] ;
262 -> 263 ;
264 [label="ymax <= 120.5\ngini = 0.034\nsamples = 883\nvalue = [11, 1, 3, 0, 868]\nclass = 5", fillcolor="#e53cc1"] ;
263 -> 264 ;
265 [label="xmin <= 189.5\ngini = 0.028\nsamples = 863\nvalue = [9, 1, 2, 0, 851]\nclass = 5", fillcolor="#e53cc1"] ;
264 -> 265 ;
266 [label="xmax <= 197.5\ngini = 0.076\nsamples = 202\nvalue = [7.0, 1.0, 0.0, 0.0, 194.0]\nclass = 5", fillcolor="#e641c3"] ;
265 -> 266 ;
267 [label="ymax <= 108.5\ngini = 0.03\nsamples = 196\nvalue = [2.0, 1.0, 0.0, 0.0, 193.0]\nclass = 5", fillcolor="#e53cc1"] ;
266 -> 267 ;
268 [label="ymin <= 97.0\ngini = 0.346\nsamples = 9\nvalue = [2, 0, 0, 0, 7]\nclass = 5", fillcolor="#ec72d2"] ;
267 -> 268 ;
269 [label="gini = 0.0\nsamples = 7\nvalue = [0, 0, 0, 0, 7]\nclass = 5", fillcolor="#e539c0"] ;
268 -> 269 ;
270 [label="gini = 0.0\nsamples = 2\nvalue = [2, 0, 0, 0, 0]\nclass = 1", fillcolor="#e58139"] ;
268 -> 270 ;
271 [label="xmin <= 170.5\ngini = 0.011\nsamples = 187\nvalue = [0.0, 1.0, 0.0, 0.0, 186.0]\nclass = 5", fillcolor="#e53ac0"] ;
267 -> 271 ;
272 [label="xmax <= 179.0\ngini = 0.219\nsamples = 8\nvalue = [0, 1, 0, 0, 7]\nclass = 5", fillcolor="#e955c9"] ;
271 -> 272 ;
273 [label="gini = 0.0\nsamples = 5\nvalue = [0, 0, 0, 0, 5]\nclass = 5", fillcolor="#e539c0"] ;
272 -> 273 ;
274 [label="ymax <= 116.0\ngini = 0.444\nsamples = 3\nvalue = [0, 1, 0, 0, 2]\nclass = 5", fillcolor="#f29ce0"] ;
272 -> 274 ;
275 [label="gini = 0.0\nsamples = 1\nvalue = [0, 0, 0, 0, 1]\nclass = 5", fillcolor="#e539c0"] ;
274 -> 275 ;
276 [label="ymax <= 118.5\ngini = 0.5\nsamples = 2\nvalue = [0, 1, 0, 0, 1]\nclass = 2", fillcolor="#ffffff"] ;
274 -> 276 ;
277 [label="gini = 0.0\nsamples = 1\nvalue = [0, 1, 0, 0, 0]\nclass = 2", fillcolor="#7be539"] ;
276 -> 277 ;
278 [label="gini = 0.0\nsamples = 1\nvalue = [0, 0, 0, 0, 1]\nclass = 5", fillcolor="#e539c0"] ;
276 -> 278 ;
279 [label="gini = 0.0\nsamples = 179\nvalue = [0, 0, 0, 0, 179]\nclass = 5", fillcolor="#e539c0"] ;
271 -> 279 ;
280 [label="ymax <= 115.5\ngini = 0.278\nsamples = 6\nvalue = [5, 0, 0, 0, 1]\nclass = 1", fillcolor="#ea9a61"] ;
266 -> 280 ;
281 [label="gini = 0.0\nsamples = 5\nvalue = [5, 0, 0, 0, 0]\nclass = 1", fillcolor="#e58139"] ;
280 -> 281 ;
282 [label="gini = 0.0\nsamples = 1\nvalue = [0, 0, 0, 0, 1]\nclass = 5", fillcolor="#e539c0"] ;
280 -> 282 ;
283 [label="ymin <= 103.5\ngini = 0.012\nsamples = 661\nvalue = [2, 0, 2, 0, 657]\nclass = 5", fillcolor="#e53ac0"] ;
265 -> 283 ;
284 [label="gini = 0.0\nsamples = 529\nvalue = [0, 0, 0, 0, 529]\nclass = 5", fillcolor="#e539c0"] ;
283 -> 284 ;
285 [label="xmin <= 267.5\ngini = 0.059\nsamples = 132\nvalue = [2, 0, 2, 0, 128]\nclass = 5", fillcolor="#e63fc2"] ;
283 -> 285 ;
286 [label="xmax <= 267.0\ngini = 0.046\nsamples = 129\nvalue = [2, 0, 1, 0, 126]\nclass = 5", fillcolor="#e63ec1"] ;
285 -> 286 ;
287 [label="ymax <= 113.5\ngini = 0.032\nsamples = 123\nvalue = [1, 0, 1, 0, 121]\nclass = 5", fillcolor="#e53cc1"] ;
286 -> 287 ;
288 [label="xmax <= 246.0\ngini = 0.245\nsamples = 7\nvalue = [1, 0, 0, 0, 6]\nclass = 5", fillcolor="#e95acb"] ;
287 -> 288 ;
289 [label="gini = 0.0\nsamples = 6\nvalue = [0, 0, 0, 0, 6]\nclass = 5", fillcolor="#e539c0"] ;
288 -> 289 ;
290 [label="gini = 0.0\nsamples = 1\nvalue = [1, 0, 0, 0, 0]\nclass = 1", fillcolor="#e58139"] ;
288 -> 290 ;
291 [label="ymax <= 119.5\ngini = 0.017\nsamples = 116\nvalue = [0, 0, 1, 0, 115]\nclass = 5", fillcolor="#e53bc1"] ;
287 -> 291 ;
292 [label="gini = 0.0\nsamples = 105\nvalue = [0, 0, 0, 0, 105]\nclass = 5", fillcolor="#e539c0"] ;
291 -> 292 ;
293 [label="ymin <= 104.5\ngini = 0.165\nsamples = 11\nvalue = [0, 0, 1, 0, 10]\nclass = 5", fillcolor="#e84dc6"] ;
291 -> 293 ;
294 [label="gini = 0.0\nsamples = 1\nvalue = [0, 0, 1, 0, 0]\nclass = 3", fillcolor="#39e5c5"] ;
293 -> 294 ;
295 [label="gini = 0.0\nsamples = 10\nvalue = [0, 0, 0, 0, 10]\nclass = 5", fillcolor="#e539c0"] ;
293 -> 295 ;
296 [label="xmin <= 256.5\ngini = 0.278\nsamples = 6\nvalue = [1, 0, 0, 0, 5]\nclass = 5", fillcolor="#ea61cd"] ;
286 -> 296 ;
297 [label="gini = 0.0\nsamples = 1\nvalue = [1, 0, 0, 0, 0]\nclass = 1", fillcolor="#e58139"] ;
296 -> 297 ;
298 [label="gini = 0.0\nsamples = 5\nvalue = [0, 0, 0, 0, 5]\nclass = 5", fillcolor="#e539c0"] ;
296 -> 298 ;
299 [label="xmax <= 275.5\ngini = 0.444\nsamples = 3\nvalue = [0, 0, 1, 0, 2]\nclass = 5", fillcolor="#f29ce0"] ;
285 -> 299 ;
300 [label="gini = 0.0\nsamples = 1\nvalue = [0, 0, 1, 0, 0]\nclass = 3", fillcolor="#39e5c5"] ;
299 -> 300 ;
301 [label="gini = 0.0\nsamples = 2\nvalue = [0, 0, 0, 0, 2]\nclass = 5", fillcolor="#e539c0"] ;
299 -> 301 ;
302 [label="ymin <= 96.5\ngini = 0.265\nsamples = 20\nvalue = [2, 0, 1, 0, 17]\nclass = 5", fillcolor="#e95acb"] ;
264 -> 302 ;
303 [label="gini = 0.0\nsamples = 2\nvalue = [2, 0, 0, 0, 0]\nclass = 1", fillcolor="#e58139"] ;
302 -> 303 ;
304 [label="xmin <= 259.0\ngini = 0.105\nsamples = 18\nvalue = [0, 0, 1, 0, 17]\nclass = 5", fillcolor="#e745c4"] ;
302 -> 304 ;
305 [label="gini = 0.0\nsamples = 15\nvalue = [0, 0, 0, 0, 15]\nclass = 5", fillcolor="#e539c0"] ;
304 -> 305 ;
306 [label="xmax <= 271.5\ngini = 0.444\nsamples = 3\nvalue = [0, 0, 1, 0, 2]\nclass = 5", fillcolor="#f29ce0"] ;
304 -> 306 ;
307 [label="gini = 0.0\nsamples = 1\nvalue = [0, 0, 1, 0, 0]\nclass = 3", fillcolor="#39e5c5"] ;
306 -> 307 ;
308 [label="gini = 0.0\nsamples = 2\nvalue = [0, 0, 0, 0, 2]\nclass = 5", fillcolor="#e539c0"] ;
306 -> 308 ;
309 [label="ymax <= 115.5\ngini = 0.323\nsamples = 31\nvalue = [5, 0, 1, 0, 25]\nclass = 5", fillcolor="#eb67cf"] ;
263 -> 309 ;
310 [label="xmax <= 285.0\ngini = 0.494\nsamples = 9\nvalue = [5, 0, 0, 0, 4]\nclass = 1", fillcolor="#fae6d7"] ;
309 -> 310 ;
311 [label="xmin <= 271.5\ngini = 0.444\nsamples = 6\nvalue = [2, 0, 0, 0, 4]\nclass = 5", fillcolor="#f29ce0"] ;
310 -> 311 ;
312 [label="ymax <= 114.0\ngini = 0.444\nsamples = 3\nvalue = [2, 0, 0, 0, 1]\nclass = 1", fillcolor="#f2c09c"] ;
311 -> 312 ;
313 [label="gini = 0.0\nsamples = 2\nvalue = [2, 0, 0, 0, 0]\nclass = 1", fillcolor="#e58139"] ;
312 -> 313 ;
314 [label="gini = 0.0\nsamples = 1\nvalue = [0, 0, 0, 0, 1]\nclass = 5", fillcolor="#e539c0"] ;
312 -> 314 ;
315 [label="gini = 0.0\nsamples = 3\nvalue = [0, 0, 0, 0, 3]\nclass = 5", fillcolor="#e539c0"] ;
311 -> 315 ;
316 [label="gini = 0.0\nsamples = 3\nvalue = [3, 0, 0, 0, 0]\nclass = 1", fillcolor="#e58139"] ;
310 -> 316 ;
317 [label="ymax <= 117.5\ngini = 0.087\nsamples = 22\nvalue = [0, 0, 1, 0, 21]\nclass = 5", fillcolor="#e642c3"] ;
309 -> 317 ;
318 [label="ymin <= 100.0\ngini = 0.375\nsamples = 4\nvalue = [0, 0, 1, 0, 3]\nclass = 5", fillcolor="#ee7bd5"] ;
317 -> 318 ;
319 [label="gini = 0.0\nsamples = 2\nvalue = [0, 0, 0, 0, 2]\nclass = 5", fillcolor="#e539c0"] ;
318 -> 319 ;
320 [label="ymax <= 116.5\ngini = 0.5\nsamples = 2\nvalue = [0, 0, 1, 0, 1]\nclass = 3", fillcolor="#ffffff"] ;
318 -> 320 ;
321 [label="gini = 0.0\nsamples = 1\nvalue = [0, 0, 0, 0, 1]\nclass = 5", fillcolor="#e539c0"] ;
320 -> 321 ;
322 [label="gini = 0.0\nsamples = 1\nvalue = [0, 0, 1, 0, 0]\nclass = 3", fillcolor="#39e5c5"] ;
320 -> 322 ;
323 [label="gini = 0.0\nsamples = 18\nvalue = [0, 0, 0, 0, 18]\nclass = 5", fillcolor="#e539c0"] ;
317 -> 323 ;
324 [label="gini = 0.0\nsamples = 3\nvalue = [3, 0, 0, 0, 0]\nclass = 1", fillcolor="#e58139"] ;
262 -> 324 ;
325 [label="gini = 0.0\nsamples = 381\nvalue = [0, 0, 0, 0, 381]\nclass = 5", fillcolor="#e539c0"] ;
261 -> 325 ;
326 [label="xmin <= 305.5\ngini = 0.107\nsamples = 179\nvalue = [4, 0, 6, 0, 169]\nclass = 5", fillcolor="#e744c4"] ;
260 -> 326 ;
327 [label="gini = 0.0\nsamples = 2\nvalue = [2, 0, 0, 0, 0]\nclass = 1", fillcolor="#e58139"] ;
326 -> 327 ;
328 [label="ymin <= 101.5\ngini = 0.087\nsamples = 177\nvalue = [2, 0, 6, 0, 169]\nclass = 5", fillcolor="#e642c3"] ;
326 -> 328 ;
329 [label="ymax <= 120.5\ngini = 0.018\nsamples = 109\nvalue = [1, 0, 0, 0, 108]\nclass = 5", fillcolor="#e53bc1"] ;
328 -> 329 ;
330 [label="gini = 0.0\nsamples = 104\nvalue = [0, 0, 0, 0, 104]\nclass = 5", fillcolor="#e539c0"] ;
329 -> 330 ;
331 [label="xmin <= 323.0\ngini = 0.32\nsamples = 5\nvalue = [1, 0, 0, 0, 4]\nclass = 5", fillcolor="#ec6ad0"] ;
329 -> 331 ;
332 [label="xmin <= 317.0\ngini = 0.5\nsamples = 2\nvalue = [1, 0, 0, 0, 1]\nclass = 1", fillcolor="#ffffff"] ;
331 -> 332 ;
333 [label="gini = 0.0\nsamples = 1\nvalue = [0, 0, 0, 0, 1]\nclass = 5", fillcolor="#e539c0"] ;
332 -> 333 ;
334 [label="gini = 0.0\nsamples = 1\nvalue = [1, 0, 0, 0, 0]\nclass = 1", fillcolor="#e58139"] ;
332 -> 334 ;
335 [label="gini = 0.0\nsamples = 3\nvalue = [0, 0, 0, 0, 3]\nclass = 5", fillcolor="#e539c0"] ;
331 -> 335 ;
336 [label="xmin <= 324.5\ngini = 0.187\nsamples = 68\nvalue = [1, 0, 6, 0, 61]\nclass = 5", fillcolor="#e84fc7"] ;
328 -> 336 ;
337 [label="xmin <= 322.0\ngini = 0.469\nsamples = 8\nvalue = [0, 0, 3, 0, 5]\nclass = 5", fillcolor="#f5b0e6"] ;
336 -> 337 ;
338 [label="xmax <= 326.5\ngini = 0.408\nsamples = 7\nvalue = [0, 0, 2, 0, 5]\nclass = 5", fillcolor="#ef88d9"] ;
337 -> 338 ;
339 [label="ymin <= 103.5\ngini = 0.5\nsamples = 4\nvalue = [0, 0, 2, 0, 2]\nclass = 3", fillcolor="#ffffff"] ;
338 -> 339 ;
340 [label="gini = 0.0\nsamples = 1\nvalue = [0, 0, 0, 0, 1]\nclass = 5", fillcolor="#e539c0"] ;
339 -> 340 ;
341 [label="ymax <= 116.5\ngini = 0.444\nsamples = 3\nvalue = [0, 0, 2, 0, 1]\nclass = 3", fillcolor="#9cf2e2"] ;
339 -> 341 ;
342 [label="gini = 0.0\nsamples = 1\nvalue = [0, 0, 0, 0, 1]\nclass = 5", fillcolor="#e539c0"] ;
341 -> 342 ;
343 [label="gini = 0.0\nsamples = 2\nvalue = [0, 0, 2, 0, 0]\nclass = 3", fillcolor="#39e5c5"] ;
341 -> 343 ;
344 [label="gini = 0.0\nsamples = 3\nvalue = [0, 0, 0, 0, 3]\nclass = 5", fillcolor="#e539c0"] ;
338 -> 344 ;
345 [label="gini = 0.0\nsamples = 1\nvalue = [0, 0, 1, 0, 0]\nclass = 3", fillcolor="#39e5c5"] ;
337 -> 345 ;
346 [label="ymax <= 119.5\ngini = 0.126\nsamples = 60\nvalue = [1, 0, 3, 0, 56]\nclass = 5", fillcolor="#e747c4"] ;
336 -> 346 ;
347 [label="xmin <= 356.0\ngini = 0.185\nsamples = 29\nvalue = [0, 0, 3, 0, 26]\nclass = 5", fillcolor="#e850c7"] ;
346 -> 347 ;
348 [label="gini = 0.0\nsamples = 20\nvalue = [0, 0, 0, 0, 20]\nclass = 5", fillcolor="#e539c0"] ;
347 -> 348 ;
349 [label="xmax <= 366.0\ngini = 0.444\nsamples = 9\nvalue = [0, 0, 3, 0, 6]\nclass = 5", fillcolor="#f29ce0"] ;
347 -> 349 ;
350 [label="gini = 0.0\nsamples = 2\nvalue = [0, 0, 2, 0, 0]\nclass = 3", fillcolor="#39e5c5"] ;
349 -> 350 ;
351 [label="ymax <= 118.5\ngini = 0.245\nsamples = 7\nvalue = [0, 0, 1, 0, 6]\nclass = 5", fillcolor="#e95acb"] ;
349 -> 351 ;
352 [label="gini = 0.0\nsamples = 6\nvalue = [0, 0, 0, 0, 6]\nclass = 5", fillcolor="#e539c0"] ;
351 -> 352 ;
353 [label="gini = 0.0\nsamples = 1\nvalue = [0, 0, 1, 0, 0]\nclass = 3", fillcolor="#39e5c5"] ;
351 -> 353 ;
354 [label="xmin <= 335.0\ngini = 0.062\nsamples = 31\nvalue = [1, 0, 0, 0, 30]\nclass = 5", fillcolor="#e640c2"] ;
346 -> 354 ;
355 [label="xmax <= 344.0\ngini = 0.5\nsamples = 2\nvalue = [1, 0, 0, 0, 1]\nclass = 1", fillcolor="#ffffff"] ;
354 -> 355 ;
356 [label="gini = 0.0\nsamples = 1\nvalue = [0, 0, 0, 0, 1]\nclass = 5", fillcolor="#e539c0"] ;
355 -> 356 ;
357 [label="gini = 0.0\nsamples = 1\nvalue = [1, 0, 0, 0, 0]\nclass = 1", fillcolor="#e58139"] ;
355 -> 357 ;
358 [label="gini = 0.0\nsamples = 29\nvalue = [0, 0, 0, 0, 29]\nclass = 5", fillcolor="#e539c0"] ;
354 -> 358 ;
359 [label="xmin <= 365.5\ngini = 0.204\nsamples = 52\nvalue = [6, 0, 0, 0, 46]\nclass = 5", fillcolor="#e853c8"] ;
259 -> 359 ;
360 [label="gini = 0.0\nsamples = 4\nvalue = [4, 0, 0, 0, 0]\nclass = 1", fillcolor="#e58139"] ;
359 -> 360 ;
361 [label="xmax <= 418.5\ngini = 0.08\nsamples = 48\nvalue = [2, 0, 0, 0, 46]\nclass = 5", fillcolor="#e642c3"] ;
359 -> 361 ;
362 [label="gini = 0.0\nsamples = 29\nvalue = [0, 0, 0, 0, 29]\nclass = 5", fillcolor="#e539c0"] ;
361 -> 362 ;
363 [label="xmin <= 406.5\ngini = 0.188\nsamples = 19\nvalue = [2, 0, 0, 0, 17]\nclass = 5", fillcolor="#e850c7"] ;
361 -> 363 ;
364 [label="gini = 0.0\nsamples = 2\nvalue = [2, 0, 0, 0, 0]\nclass = 1", fillcolor="#e58139"] ;
363 -> 364 ;
365 [label="gini = 0.0\nsamples = 17\nvalue = [0, 0, 0, 0, 17]\nclass = 5", fillcolor="#e539c0"] ;
363 -> 365 ;
366 [label="ymin <= 98.5\ngini = 0.013\nsamples = 611\nvalue = [4, 0, 0, 0, 607]\nclass = 5", fillcolor="#e53ac0"] ;
258 -> 366 ;
367 [label="ymax <= 124.5\ngini = 0.32\nsamples = 15\nvalue = [3, 0, 0, 0, 12]\nclass = 5", fillcolor="#ec6ad0"] ;
366 -> 367 ;
368 [label="xmin <= 195.5\ngini = 0.165\nsamples = 11\nvalue = [1, 0, 0, 0, 10]\nclass = 5", fillcolor="#e84dc6"] ;
367 -> 368 ;
369 [label="ymax <= 123.0\ngini = 0.5\nsamples = 2\nvalue = [1, 0, 0, 0, 1]\nclass = 1", fillcolor="#ffffff"] ;
368 -> 369 ;
370 [label="gini = 0.0\nsamples = 1\nvalue = [1, 0, 0, 0, 0]\nclass = 1", fillcolor="#e58139"] ;
369 -> 370 ;
371 [label="gini = 0.0\nsamples = 1\nvalue = [0, 0, 0, 0, 1]\nclass = 5", fillcolor="#e539c0"] ;
369 -> 371 ;
372 [label="gini = 0.0\nsamples = 9\nvalue = [0, 0, 0, 0, 9]\nclass = 5", fillcolor="#e539c0"] ;
368 -> 372 ;
373 [label="ymin <= 97.5\ngini = 0.5\nsamples = 4\nvalue = [2, 0, 0, 0, 2]\nclass = 1", fillcolor="#ffffff"] ;
367 -> 373 ;
374 [label="gini = 0.0\nsamples = 2\nvalue = [0, 0, 0, 0, 2]\nclass = 5", fillcolor="#e539c0"] ;
373 -> 374 ;
375 [label="gini = 0.0\nsamples = 2\nvalue = [2, 0, 0, 0, 0]\nclass = 1", fillcolor="#e58139"] ;
373 -> 375 ;
376 [label="ymax <= 126.5\ngini = 0.003\nsamples = 596\nvalue = [1, 0, 0, 0, 595]\nclass = 5", fillcolor="#e539c0"] ;
366 -> 376 ;
377 [label="gini = 0.0\nsamples = 560\nvalue = [0, 0, 0, 0, 560]\nclass = 5", fillcolor="#e539c0"] ;
376 -> 377 ;
378 [label="xmax <= 429.5\ngini = 0.054\nsamples = 36\nvalue = [1, 0, 0, 0, 35]\nclass = 5", fillcolor="#e63fc2"] ;
376 -> 378 ;
379 [label="gini = 0.0\nsamples = 32\nvalue = [0, 0, 0, 0, 32]\nclass = 5", fillcolor="#e539c0"] ;
378 -> 379 ;
380 [label="xmin <= 426.5\ngini = 0.375\nsamples = 4\nvalue = [1, 0, 0, 0, 3]\nclass = 5", fillcolor="#ee7bd5"] ;
378 -> 380 ;
381 [label="gini = 0.0\nsamples = 1\nvalue = [1, 0, 0, 0, 0]\nclass = 1", fillcolor="#e58139"] ;
380 -> 381 ;
382 [label="gini = 0.0\nsamples = 3\nvalue = [0, 0, 0, 0, 3]\nclass = 5", fillcolor="#e539c0"] ;
380 -> 382 ;
383 [label="gini = 0.0\nsamples = 1\nvalue = [1, 0, 0, 0, 0]\nclass = 1", fillcolor="#e58139"] ;
253 -> 383 ;
384 [label="xmin <= 189.5\ngini = 0.212\nsamples = 43\nvalue = [3, 2, 0, 0, 38]\nclass = 5", fillcolor="#e852c8"] ;
252 -> 384 ;
385 [label="gini = 0.0\nsamples = 1\nvalue = [1, 0, 0, 0, 0]\nclass = 1", fillcolor="#e58139"] ;
384 -> 385 ;
386 [label="xmin <= 238.5\ngini = 0.177\nsamples = 42\nvalue = [2, 2, 0, 0, 38]\nclass = 5", fillcolor="#e84dc6"] ;
384 -> 386 ;
387 [label="xmax <= 271.5\ngini = 0.5\nsamples = 2\nvalue = [0, 1, 0, 0, 1]\nclass = 2", fillcolor="#ffffff"] ;
386 -> 387 ;
388 [label="gini = 0.0\nsamples = 1\nvalue = [0, 0, 0, 0, 1]\nclass = 5", fillcolor="#e539c0"] ;
387 -> 388 ;
389 [label="gini = 0.0\nsamples = 1\nvalue = [0, 1, 0, 0, 0]\nclass = 2", fillcolor="#7be539"] ;
387 -> 389 ;
390 [label="ymax <= 128.5\ngini = 0.141\nsamples = 40\nvalue = [2, 1, 0, 0, 37]\nclass = 5", fillcolor="#e749c5"] ;
386 -> 390 ;
391 [label="ymin <= 105.5\ngini = 0.298\nsamples = 11\nvalue = [2, 0, 0, 0, 9]\nclass = 5", fillcolor="#eb65ce"] ;
390 -> 391 ;
392 [label="ymin <= 103.5\ngini = 0.18\nsamples = 10\nvalue = [1, 0, 0, 0, 9]\nclass = 5", fillcolor="#e84fc7"] ;
391 -> 392 ;
393 [label="xmin <= 294.5\ngini = 0.444\nsamples = 3\nvalue = [1, 0, 0, 0, 2]\nclass = 5", fillcolor="#f29ce0"] ;
392 -> 393 ;
394 [label="gini = 0.0\nsamples = 1\nvalue = [1, 0, 0, 0, 0]\nclass = 1", fillcolor="#e58139"] ;
393 -> 394 ;
395 [label="gini = 0.0\nsamples = 2\nvalue = [0, 0, 0, 0, 2]\nclass = 5", fillcolor="#e539c0"] ;
393 -> 395 ;
396 [label="gini = 0.0\nsamples = 7\nvalue = [0, 0, 0, 0, 7]\nclass = 5", fillcolor="#e539c0"] ;
392 -> 396 ;
397 [label="gini = 0.0\nsamples = 1\nvalue = [1, 0, 0, 0, 0]\nclass = 1", fillcolor="#e58139"] ;
391 -> 397 ;
398 [label="ymin <= 105.5\ngini = 0.067\nsamples = 29\nvalue = [0, 1, 0, 0, 28]\nclass = 5", fillcolor="#e640c2"] ;
390 -> 398 ;
399 [label="gini = 0.0\nsamples = 19\nvalue = [0, 0, 0, 0, 19]\nclass = 5", fillcolor="#e539c0"] ;
398 -> 399 ;
400 [label="xmax <= 380.0\ngini = 0.18\nsamples = 10\nvalue = [0, 1, 0, 0, 9]\nclass = 5", fillcolor="#e84fc7"] ;
398 -> 400 ;
401 [label="gini = 0.0\nsamples = 6\nvalue = [0, 0, 0, 0, 6]\nclass = 5", fillcolor="#e539c0"] ;
400 -> 401 ;
402 [label="xmin <= 444.0\ngini = 0.375\nsamples = 4\nvalue = [0, 1, 0, 0, 3]\nclass = 5", fillcolor="#ee7bd5"] ;
400 -> 402 ;
403 [label="gini = 0.0\nsamples = 1\nvalue = [0, 1, 0, 0, 0]\nclass = 2", fillcolor="#7be539"] ;
402 -> 403 ;
404 [label="gini = 0.0\nsamples = 3\nvalue = [0, 0, 0, 0, 3]\nclass = 5", fillcolor="#e539c0"] ;
402 -> 404 ;
405 [label="xmin <= 454.5\ngini = 0.444\nsamples = 3\nvalue = [2, 0, 0, 0, 1]\nclass = 1", fillcolor="#f2c09c"] ;
249 -> 405 ;
406 [label="gini = 0.0\nsamples = 2\nvalue = [2, 0, 0, 0, 0]\nclass = 1", fillcolor="#e58139"] ;
405 -> 406 ;
407 [label="gini = 0.0\nsamples = 1\nvalue = [0, 0, 0, 0, 1]\nclass = 5", fillcolor="#e539c0"] ;
405 -> 407 ;
408 [label="xmin <= 108.5\ngini = 0.611\nsamples = 6\nvalue = [3, 2, 0, 0, 1]\nclass = 1", fillcolor="#f8e0ce"] ;
10 -> 408 ;
409 [label="gini = 0.0\nsamples = 1\nvalue = [0, 1, 0, 0, 0]\nclass = 2", fillcolor="#7be539"] ;
408 -> 409 ;
410 [label="xmax <= 451.5\ngini = 0.56\nsamples = 5\nvalue = [3, 1, 0, 0, 1]\nclass = 1", fillcolor="#f2c09c"] ;
408 -> 410 ;
411 [label="xmax <= 199.5\ngini = 0.375\nsamples = 4\nvalue = [3, 0, 0, 0, 1]\nclass = 1", fillcolor="#eeab7b"] ;
410 -> 411 ;
412 [label="ymax <= 134.0\ngini = 0.5\nsamples = 2\nvalue = [1, 0, 0, 0, 1]\nclass = 1", fillcolor="#ffffff"] ;
411 -> 412 ;
413 [label="gini = 0.0\nsamples = 1\nvalue = [0, 0, 0, 0, 1]\nclass = 5", fillcolor="#e539c0"] ;
412 -> 413 ;
414 [label="gini = 0.0\nsamples = 1\nvalue = [1, 0, 0, 0, 0]\nclass = 1", fillcolor="#e58139"] ;
412 -> 414 ;
415 [label="gini = 0.0\nsamples = 2\nvalue = [2, 0, 0, 0, 0]\nclass = 1", fillcolor="#e58139"] ;
411 -> 415 ;
416 [label="gini = 0.0\nsamples = 1\nvalue = [0, 1, 0, 0, 0]\nclass = 2", fillcolor="#7be539"] ;
410 -> 416 ;
417 [label="xmax <= 377.0\ngini = 0.147\nsamples = 2840\nvalue = [193.0, 17.0, 14.0, 0.0, 2616.0]\nclass = 5", fillcolor="#e74ac5"] ;
3 -> 417 ;
418 [label="xmin <= 16.5\ngini = 0.123\nsamples = 2753\nvalue = [157, 15, 8, 0, 2573]\nclass = 5", fillcolor="#e747c4"] ;
417 -> 418 ;
419 [label="ymin <= 113.5\ngini = 0.346\nsamples = 9\nvalue = [7, 0, 0, 0, 2]\nclass = 1", fillcolor="#eca572"] ;
418 -> 419 ;
420 [label="gini = 0.0\nsamples = 6\nvalue = [6, 0, 0, 0, 0]\nclass = 1", fillcolor="#e58139"] ;
419 -> 420 ;
421 [label="ymax <= 128.0\ngini = 0.444\nsamples = 3\nvalue = [1, 0, 0, 0, 2]\nclass = 5", fillcolor="#f29ce0"] ;
419 -> 421 ;
422 [label="gini = 0.0\nsamples = 1\nvalue = [1, 0, 0, 0, 0]\nclass = 1", fillcolor="#e58139"] ;
421 -> 422 ;
423 [label="gini = 0.0\nsamples = 2\nvalue = [0, 0, 0, 0, 2]\nclass = 5", fillcolor="#e539c0"] ;
421 -> 423 ;
424 [label="xmin <= 195.5\ngini = 0.119\nsamples = 2744\nvalue = [150, 15, 8, 0, 2571]\nclass = 5", fillcolor="#e746c4"] ;
418 -> 424 ;
425 [label="xmax <= 204.5\ngini = 0.215\nsamples = 733\nvalue = [74, 11, 3, 0, 645]\nclass = 5", fillcolor="#e853c8"] ;
424 -> 425 ;
426 [label="ymax <= 123.5\ngini = 0.19\nsamples = 720\nvalue = [61, 11, 3, 0, 645]\nclass = 5", fillcolor="#e850c7"] ;
425 -> 426 ;
427 [label="xmin <= 153.5\ngini = 0.307\nsamples = 216\nvalue = [37, 2, 1, 0, 176]\nclass = 5", fillcolor="#eb65ce"] ;
426 -> 427 ;
428 [label="xmax <= 162.5\ngini = 0.488\nsamples = 82\nvalue = [29, 1, 1, 0, 51]\nclass = 5", fillcolor="#f4ade5"] ;
427 -> 428 ;
429 [label="xmin <= 137.5\ngini = 0.456\nsamples = 77\nvalue = [25, 0, 1, 0, 51]\nclass = 5", fillcolor="#f29ce0"] ;
428 -> 429 ;
430 [label="xmax <= 117.0\ngini = 0.479\nsamples = 63\nvalue = [25, 0, 0, 0, 38]\nclass = 5", fillcolor="#f6bbe9"] ;
429 -> 430 ;
431 [label="xmin <= 47.5\ngini = 0.425\nsamples = 49\nvalue = [15, 0, 0, 0, 34]\nclass = 5", fillcolor="#f090dc"] ;
430 -> 431 ;
432 [label="ymin <= 109.5\ngini = 0.5\nsamples = 20\nvalue = [10, 0, 0, 0, 10]\nclass = 1", fillcolor="#ffffff"] ;
431 -> 432 ;
433 [label="xmax <= 58.0\ngini = 0.219\nsamples = 8\nvalue = [1, 0, 0, 0, 7]\nclass = 5", fillcolor="#e955c9"] ;
432 -> 433 ;
434 [label="gini = 0.0\nsamples = 7\nvalue = [0, 0, 0, 0, 7]\nclass = 5", fillcolor="#e539c0"] ;
433 -> 434 ;
435 [label="gini = 0.0\nsamples = 1\nvalue = [1, 0, 0, 0, 0]\nclass = 1", fillcolor="#e58139"] ;
433 -> 435 ;
436 [label="ymax <= 121.5\ngini = 0.375\nsamples = 12\nvalue = [9, 0, 0, 0, 3]\nclass = 1", fillcolor="#eeab7b"] ;
432 -> 436 ;
437 [label="gini = 0.0\nsamples = 6\nvalue = [6, 0, 0, 0, 0]\nclass = 1", fillcolor="#e58139"] ;
436 -> 437 ;
438 [label="xmax <= 50.0\ngini = 0.5\nsamples = 6\nvalue = [3, 0, 0, 0, 3]\nclass = 1", fillcolor="#ffffff"] ;
436 -> 438 ;
439 [label="ymin <= 114.0\ngini = 0.375\nsamples = 4\nvalue = [1, 0, 0, 0, 3]\nclass = 5", fillcolor="#ee7bd5"] ;
438 -> 439 ;
440 [label="gini = 0.0\nsamples = 3\nvalue = [0, 0, 0, 0, 3]\nclass = 5", fillcolor="#e539c0"] ;
439 -> 440 ;
441 [label="gini = 0.0\nsamples = 1\nvalue = [1, 0, 0, 0, 0]\nclass = 1", fillcolor="#e58139"] ;
439 -> 441 ;
442 [label="gini = 0.0\nsamples = 2\nvalue = [2, 0, 0, 0, 0]\nclass = 1", fillcolor="#e58139"] ;
438 -> 442 ;
443 [label="ymin <= 113.5\ngini = 0.285\nsamples = 29\nvalue = [5, 0, 0, 0, 24]\nclass = 5", fillcolor="#ea62cd"] ;
431 -> 443 ;
444 [label="xmin <= 70.5\ngini = 0.245\nsamples = 28\nvalue = [4, 0, 0, 0, 24]\nclass = 5", fillcolor="#e95acb"] ;
443 -> 444 ;
445 [label="xmax <= 69.5\ngini = 0.408\nsamples = 14\nvalue = [4, 0, 0, 0, 10]\nclass = 5", fillcolor="#ef88d9"] ;
444 -> 445 ;
446 [label="xmin <= 52.5\ngini = 0.18\nsamples = 10\nvalue = [1, 0, 0, 0, 9]\nclass = 5", fillcolor="#e84fc7"] ;
445 -> 446 ;
447 [label="gini = 0.0\nsamples = 7\nvalue = [0, 0, 0, 0, 7]\nclass = 5", fillcolor="#e539c0"] ;
446 -> 447 ;
448 [label="xmin <= 55.5\ngini = 0.444\nsamples = 3\nvalue = [1, 0, 0, 0, 2]\nclass = 5", fillcolor="#f29ce0"] ;
446 -> 448 ;
449 [label="gini = 0.0\nsamples = 1\nvalue = [1, 0, 0, 0, 0]\nclass = 1", fillcolor="#e58139"] ;
448 -> 449 ;
450 [label="gini = 0.0\nsamples = 2\nvalue = [0, 0, 0, 0, 2]\nclass = 5", fillcolor="#e539c0"] ;
448 -> 450 ;
451 [label="ymin <= 112.5\ngini = 0.375\nsamples = 4\nvalue = [3, 0, 0, 0, 1]\nclass = 1", fillcolor="#eeab7b"] ;
445 -> 451 ;
452 [label="gini = 0.0\nsamples = 3\nvalue = [3, 0, 0, 0, 0]\nclass = 1", fillcolor="#e58139"] ;
451 -> 452 ;
453 [label="gini = 0.0\nsamples = 1\nvalue = [0, 0, 0, 0, 1]\nclass = 5", fillcolor="#e539c0"] ;
451 -> 453 ;
454 [label="gini = 0.0\nsamples = 14\nvalue = [0, 0, 0, 0, 14]\nclass = 5", fillcolor="#e539c0"] ;
444 -> 454 ;
455 [label="gini = 0.0\nsamples = 1\nvalue = [1, 0, 0, 0, 0]\nclass = 1", fillcolor="#e58139"] ;
443 -> 455 ;
456 [label="xmin <= 126.0\ngini = 0.408\nsamples = 14\nvalue = [10, 0, 0, 0, 4]\nclass = 1", fillcolor="#efb388"] ;
430 -> 456 ;
457 [label="gini = 0.0\nsamples = 8\nvalue = [8, 0, 0, 0, 0]\nclass = 1", fillcolor="#e58139"] ;
456 -> 457 ;
458 [label="xmax <= 144.0\ngini = 0.444\nsamples = 6\nvalue = [2, 0, 0, 0, 4]\nclass = 5", fillcolor="#f29ce0"] ;
456 -> 458 ;
459 [label="gini = 0.0\nsamples = 4\nvalue = [0, 0, 0, 0, 4]\nclass = 5", fillcolor="#e539c0"] ;
458 -> 459 ;
460 [label="gini = 0.0\nsamples = 2\nvalue = [2, 0, 0, 0, 0]\nclass = 1", fillcolor="#e58139"] ;
458 -> 460 ;
461 [label="xmax <= 160.0\ngini = 0.133\nsamples = 14\nvalue = [0, 0, 1, 0, 13]\nclass = 5", fillcolor="#e748c5"] ;
429 -> 461 ;
462 [label="gini = 0.0\nsamples = 10\nvalue = [0, 0, 0, 0, 10]\nclass = 5", fillcolor="#e539c0"] ;
461 -> 462 ;
463 [label="ymax <= 120.5\ngini = 0.375\nsamples = 4\nvalue = [0, 0, 1, 0, 3]\nclass = 5", fillcolor="#ee7bd5"] ;
461 -> 463 ;
464 [label="gini = 0.0\nsamples = 3\nvalue = [0, 0, 0, 0, 3]\nclass = 5", fillcolor="#e539c0"] ;
463 -> 464 ;
465 [label="gini = 0.0\nsamples = 1\nvalue = [0, 0, 1, 0, 0]\nclass = 3", fillcolor="#39e5c5"] ;
463 -> 465 ;
466 [label="ymin <= 107.5\ngini = 0.32\nsamples = 5\nvalue = [4, 1, 0, 0, 0]\nclass = 1", fillcolor="#eca06a"] ;
428 -> 466 ;
467 [label="gini = 0.0\nsamples = 1\nvalue = [0, 1, 0, 0, 0]\nclass = 2", fillcolor="#7be539"] ;
466 -> 467 ;
468 [label="gini = 0.0\nsamples = 4\nvalue = [4, 0, 0, 0, 0]\nclass = 1", fillcolor="#e58139"] ;
466 -> 468 ;
469 [label="ymin <= 116.5\ngini = 0.126\nsamples = 134\nvalue = [8, 1, 0, 0, 125]\nclass = 5", fillcolor="#e747c4"] ;
427 -> 469 ;
470 [label="ymin <= 112.5\ngini = 0.101\nsamples = 132\nvalue = [6, 1, 0, 0, 125]\nclass = 5", fillcolor="#e644c4"] ;
469 -> 470 ;
471 [label="xmin <= 159.5\ngini = 0.038\nsamples = 103\nvalue = [1.0, 1.0, 0.0, 0.0, 101.0]\nclass = 5", fillcolor="#e63dc1"] ;
470 -> 471 ;
472 [label="xmax <= 171.0\ngini = 0.165\nsamples = 11\nvalue = [0, 1, 0, 0, 10]\nclass = 5", fillcolor="#e84dc6"] ;
471 -> 472 ;
473 [label="gini = 0.0\nsamples = 10\nvalue = [0, 0, 0, 0, 10]\nclass = 5", fillcolor="#e539c0"] ;
472 -> 473 ;
474 [label="gini = 0.0\nsamples = 1\nvalue = [0, 1, 0, 0, 0]\nclass = 2", fillcolor="#7be539"] ;
472 -> 474 ;
475 [label="ymin <= 111.5\ngini = 0.022\nsamples = 92\nvalue = [1, 0, 0, 0, 91]\nclass = 5", fillcolor="#e53bc1"] ;
471 -> 475 ;
476 [label="gini = 0.0\nsamples = 72\nvalue = [0, 0, 0, 0, 72]\nclass = 5", fillcolor="#e539c0"] ;
475 -> 476 ;
477 [label="ymax <= 119.5\ngini = 0.095\nsamples = 20\nvalue = [1, 0, 0, 0, 19]\nclass = 5", fillcolor="#e643c3"] ;
475 -> 477 ;
478 [label="xmin <= 185.5\ngini = 0.5\nsamples = 2\nvalue = [1, 0, 0, 0, 1]\nclass = 1", fillcolor="#ffffff"] ;
477 -> 478 ;
479 [label="gini = 0.0\nsamples = 1\nvalue = [1, 0, 0, 0, 0]\nclass = 1", fillcolor="#e58139"] ;
478 -> 479 ;
480 [label="gini = 0.0\nsamples = 1\nvalue = [0, 0, 0, 0, 1]\nclass = 5", fillcolor="#e539c0"] ;
478 -> 480 ;
481 [label="gini = 0.0\nsamples = 18\nvalue = [0, 0, 0, 0, 18]\nclass = 5", fillcolor="#e539c0"] ;
477 -> 481 ;
482 [label="xmax <= 201.5\ngini = 0.285\nsamples = 29\nvalue = [5, 0, 0, 0, 24]\nclass = 5", fillcolor="#ea62cd"] ;
470 -> 482 ;
483 [label="xmin <= 170.5\ngini = 0.245\nsamples = 28\nvalue = [4, 0, 0, 0, 24]\nclass = 5", fillcolor="#e95acb"] ;
482 -> 483 ;
484 [label="xmax <= 172.5\ngini = 0.408\nsamples = 7\nvalue = [2, 0, 0, 0, 5]\nclass = 5", fillcolor="#ef88d9"] ;
483 -> 484 ;
485 [label="gini = 0.0\nsamples = 5\nvalue = [0, 0, 0, 0, 5]\nclass = 5", fillcolor="#e539c0"] ;
484 -> 485 ;
486 [label="gini = 0.0\nsamples = 2\nvalue = [2, 0, 0, 0, 0]\nclass = 1", fillcolor="#e58139"] ;
484 -> 486 ;
487 [label="ymin <= 115.5\ngini = 0.172\nsamples = 21\nvalue = [2, 0, 0, 0, 19]\nclass = 5", fillcolor="#e84ec7"] ;
483 -> 487 ;
488 [label="xmax <= 196.5\ngini = 0.1\nsamples = 19\nvalue = [1, 0, 0, 0, 18]\nclass = 5", fillcolor="#e644c4"] ;
487 -> 488 ;
489 [label="gini = 0.0\nsamples = 15\nvalue = [0, 0, 0, 0, 15]\nclass = 5", fillcolor="#e539c0"] ;
488 -> 489 ;
490 [label="xmin <= 190.5\ngini = 0.375\nsamples = 4\nvalue = [1, 0, 0, 0, 3]\nclass = 5", fillcolor="#ee7bd5"] ;
488 -> 490 ;
491 [label="gini = 0.0\nsamples = 1\nvalue = [1, 0, 0, 0, 0]\nclass = 1", fillcolor="#e58139"] ;
490 -> 491 ;
492 [label="gini = 0.0\nsamples = 3\nvalue = [0, 0, 0, 0, 3]\nclass = 5", fillcolor="#e539c0"] ;
490 -> 492 ;
493 [label="xmax <= 194.5\ngini = 0.5\nsamples = 2\nvalue = [1, 0, 0, 0, 1]\nclass = 1", fillcolor="#ffffff"] ;
487 -> 493 ;
494 [label="gini = 0.0\nsamples = 1\nvalue = [1, 0, 0, 0, 0]\nclass = 1", fillcolor="#e58139"] ;
493 -> 494 ;
495 [label="gini = 0.0\nsamples = 1\nvalue = [0, 0, 0, 0, 1]\nclass = 5", fillcolor="#e539c0"] ;
493 -> 495 ;
496 [label="gini = 0.0\nsamples = 1\nvalue = [1, 0, 0, 0, 0]\nclass = 1", fillcolor="#e58139"] ;
482 -> 496 ;
497 [label="gini = 0.0\nsamples = 2\nvalue = [2, 0, 0, 0, 0]\nclass = 1", fillcolor="#e58139"] ;
469 -> 497 ;
498 [label="xmin <= 39.5\ngini = 0.131\nsamples = 504\nvalue = [24, 9, 2, 0, 469]\nclass = 5", fillcolor="#e747c5"] ;
426 -> 498 ;
499 [label="gini = 0.0\nsamples = 130\nvalue = [0, 0, 0, 0, 130]\nclass = 5", fillcolor="#e539c0"] ;
498 -> 499 ;
500 [label="xmin <= 52.0\ngini = 0.174\nsamples = 374\nvalue = [24.0, 9.0, 2.0, 0.0, 339.0]\nclass = 5", fillcolor="#e84dc6"] ;
498 -> 500 ;
501 [label="xmax <= 61.5\ngini = 0.604\nsamples = 13\nvalue = [4, 1, 1, 0, 7]\nclass = 5", fillcolor="#f6bdea"] ;
500 -> 501 ;
502 [label="xmin <= 41.0\ngini = 0.37\nsamples = 9\nvalue = [1, 0, 1, 0, 7]\nclass = 5", fillcolor="#ec6ad0"] ;
501 -> 502 ;
503 [label="gini = 0.0\nsamples = 1\nvalue = [1, 0, 0, 0, 0]\nclass = 1", fillcolor="#e58139"] ;
502 -> 503 ;
504 [label="ymax <= 130.0\ngini = 0.219\nsamples = 8\nvalue = [0, 0, 1, 0, 7]\nclass = 5", fillcolor="#e955c9"] ;
502 -> 504 ;
505 [label="gini = 0.0\nsamples = 6\nvalue = [0, 0, 0, 0, 6]\nclass = 5", fillcolor="#e539c0"] ;
504 -> 505 ;
506 [label="xmin <= 44.5\ngini = 0.5\nsamples = 2\nvalue = [0, 0, 1, 0, 1]\nclass = 3", fillcolor="#ffffff"] ;
504 -> 506 ;
507 [label="gini = 0.0\nsamples = 1\nvalue = [0, 0, 0, 0, 1]\nclass = 5", fillcolor="#e539c0"] ;
506 -> 507 ;
508 [label="gini = 0.0\nsamples = 1\nvalue = [0, 0, 1, 0, 0]\nclass = 3", fillcolor="#39e5c5"] ;
506 -> 508 ;
509 [label="xmax <= 73.5\ngini = 0.375\nsamples = 4\nvalue = [3, 1, 0, 0, 0]\nclass = 1", fillcolor="#eeab7b"] ;
501 -> 509 ;
510 [label="gini = 0.0\nsamples = 3\nvalue = [3, 0, 0, 0, 0]\nclass = 1", fillcolor="#e58139"] ;
509 -> 510 ;
511 [label="gini = 0.0\nsamples = 1\nvalue = [0, 1, 0, 0, 0]\nclass = 2", fillcolor="#7be539"] ;
509 -> 511 ;
512 [label="xmin <= 128.0\ngini = 0.151\nsamples = 361\nvalue = [20, 8, 1, 0, 332]\nclass = 5", fillcolor="#e74ac5"] ;
500 -> 512 ;
513 [label="xmax <= 138.5\ngini = 0.241\nsamples = 104\nvalue = [9, 5, 0, 0, 90]\nclass = 5", fillcolor="#e956c9"] ;
512 -> 513 ;
514 [label="ymax <= 127.5\ngini = 0.15\nsamples = 98\nvalue = [8.0, 0.0, 0.0, 0.0, 90.0]\nclass = 5", fillcolor="#e74bc6"] ;
513 -> 514 ;
515 [label="ymin <= 115.5\ngini = 0.375\nsamples = 24\nvalue = [6, 0, 0, 0, 18]\nclass = 5", fillcolor="#ee7bd5"] ;
514 -> 515 ;
516 [label="ymin <= 110.5\ngini = 0.298\nsamples = 22\nvalue = [4, 0, 0, 0, 18]\nclass = 5", fillcolor="#eb65ce"] ;
515 -> 516 ;
517 [label="gini = 0.0\nsamples = 10\nvalue = [0, 0, 0, 0, 10]\nclass = 5", fillcolor="#e539c0"] ;
516 -> 517 ;
518 [label="xmax <= 79.0\ngini = 0.444\nsamples = 12\nvalue = [4, 0, 0, 0, 8]\nclass = 5", fillcolor="#f29ce0"] ;
516 -> 518 ;
519 [label="gini = 0.0\nsamples = 4\nvalue = [0, 0, 0, 0, 4]\nclass = 5", fillcolor="#e539c0"] ;
518 -> 519 ;
520 [label="xmin <= 81.0\ngini = 0.5\nsamples = 8\nvalue = [4, 0, 0, 0, 4]\nclass = 1", fillcolor="#ffffff"] ;
518 -> 520 ;
521 [label="gini = 0.0\nsamples = 3\nvalue = [3, 0, 0, 0, 0]\nclass = 1", fillcolor="#e58139"] ;
520 -> 521 ;
522 [label="xmax <= 128.0\ngini = 0.32\nsamples = 5\nvalue = [1, 0, 0, 0, 4]\nclass = 5", fillcolor="#ec6ad0"] ;
520 -> 522 ;
523 [label="gini = 0.0\nsamples = 4\nvalue = [0, 0, 0, 0, 4]\nclass = 5", fillcolor="#e539c0"] ;
522 -> 523 ;
524 [label="gini = 0.0\nsamples = 1\nvalue = [1, 0, 0, 0, 0]\nclass = 1", fillcolor="#e58139"] ;
522 -> 524 ;
525 [label="gini = 0.0\nsamples = 2\nvalue = [2, 0, 0, 0, 0]\nclass = 1", fillcolor="#e58139"] ;
515 -> 525 ;
526 [label="ymin <= 108.0\ngini = 0.053\nsamples = 74\nvalue = [2, 0, 0, 0, 72]\nclass = 5", fillcolor="#e63ec2"] ;
514 -> 526 ;
527 [label="gini = 0.0\nsamples = 1\nvalue = [1, 0, 0, 0, 0]\nclass = 1", fillcolor="#e58139"] ;
526 -> 527 ;
528 [label="ymax <= 134.5\ngini = 0.027\nsamples = 73\nvalue = [1, 0, 0, 0, 72]\nclass = 5", fillcolor="#e53cc1"] ;
526 -> 528 ;
529 [label="gini = 0.0\nsamples = 68\nvalue = [0, 0, 0, 0, 68]\nclass = 5", fillcolor="#e539c0"] ;
528 -> 529 ;
530 [label="xmin <= 76.0\ngini = 0.32\nsamples = 5\nvalue = [1, 0, 0, 0, 4]\nclass = 5", fillcolor="#ec6ad0"] ;
528 -> 530 ;
531 [label="gini = 0.0\nsamples = 1\nvalue = [1, 0, 0, 0, 0]\nclass = 1", fillcolor="#e58139"] ;
530 -> 531 ;
532 [label="gini = 0.0\nsamples = 4\nvalue = [0, 0, 0, 0, 4]\nclass = 5", fillcolor="#e539c0"] ;
530 -> 532 ;
533 [label="xmax <= 152.0\ngini = 0.278\nsamples = 6\nvalue = [1, 5, 0, 0, 0]\nclass = 2", fillcolor="#95ea61"] ;
513 -> 533 ;
534 [label="gini = 0.0\nsamples = 5\nvalue = [0, 5, 0, 0, 0]\nclass = 2", fillcolor="#7be539"] ;
533 -> 534 ;
535 [label="gini = 0.0\nsamples = 1\nvalue = [1, 0, 0, 0, 0]\nclass = 1", fillcolor="#e58139"] ;
533 -> 535 ;
536 [label="ymin <= 115.5\ngini = 0.111\nsamples = 257\nvalue = [11, 3, 1, 0, 242]\nclass = 5", fillcolor="#e745c4"] ;
512 -> 536 ;
537 [label="xmin <= 166.0\ngini = 0.046\nsamples = 170\nvalue = [3, 0, 1, 0, 166]\nclass = 5", fillcolor="#e63ec2"] ;
536 -> 537 ;
538 [label="xmax <= 175.5\ngini = 0.147\nsamples = 51\nvalue = [3, 0, 1, 0, 47]\nclass = 5", fillcolor="#e74ac5"] ;
537 -> 538 ;
539 [label="ymin <= 108.5\ngini = 0.042\nsamples = 47\nvalue = [0, 0, 1, 0, 46]\nclass = 5", fillcolor="#e63dc1"] ;
538 -> 539 ;
540 [label="xmin <= 147.0\ngini = 0.444\nsamples = 3\nvalue = [0, 0, 1, 0, 2]\nclass = 5", fillcolor="#f29ce0"] ;
539 -> 540 ;
541 [label="gini = 0.0\nsamples = 2\nvalue = [0, 0, 0, 0, 2]\nclass = 5", fillcolor="#e539c0"] ;
540 -> 541 ;
542 [label="gini = 0.0\nsamples = 1\nvalue = [0, 0, 1, 0, 0]\nclass = 3", fillcolor="#39e5c5"] ;
540 -> 542 ;
543 [label="gini = 0.0\nsamples = 44\nvalue = [0, 0, 0, 0, 44]\nclass = 5", fillcolor="#e539c0"] ;
539 -> 543 ;
544 [label="ymax <= 130.5\ngini = 0.375\nsamples = 4\nvalue = [3, 0, 0, 0, 1]\nclass = 1", fillcolor="#eeab7b"] ;
538 -> 544 ;
545 [label="gini = 0.0\nsamples = 3\nvalue = [3, 0, 0, 0, 0]\nclass = 1", fillcolor="#e58139"] ;
544 -> 545 ;
546 [label="gini = 0.0\nsamples = 1\nvalue = [0, 0, 0, 0, 1]\nclass = 5", fillcolor="#e539c0"] ;
544 -> 546 ;
547 [label="gini = 0.0\nsamples = 119\nvalue = [0, 0, 0, 0, 119]\nclass = 5", fillcolor="#e539c0"] ;
537 -> 547 ;
548 [label="ymax <= 124.5\ngini = 0.227\nsamples = 87\nvalue = [8, 3, 0, 0, 76]\nclass = 5", fillcolor="#e955c9"] ;
536 -> 548 ;
549 [label="xmax <= 184.5\ngini = 0.49\nsamples = 7\nvalue = [3, 0, 0, 0, 4]\nclass = 5", fillcolor="#f8ceef"] ;
548 -> 549 ;
550 [label="gini = 0.0\nsamples = 4\nvalue = [0, 0, 0, 0, 4]\nclass = 5", fillcolor="#e539c0"] ;
549 -> 550 ;
551 [label="gini = 0.0\nsamples = 3\nvalue = [3, 0, 0, 0, 0]\nclass = 1", fillcolor="#e58139"] ;
549 -> 551 ;
552 [label="ymin <= 117.5\ngini = 0.185\nsamples = 80\nvalue = [5, 3, 0, 0, 72]\nclass = 5", fillcolor="#e84ec7"] ;
548 -> 552 ;
553 [label="ymax <= 133.5\ngini = 0.104\nsamples = 55\nvalue = [1, 2, 0, 0, 52]\nclass = 5", fillcolor="#e644c4"] ;
552 -> 553 ;
554 [label="xmax <= 187.0\ngini = 0.072\nsamples = 54\nvalue = [1, 1, 0, 0, 52]\nclass = 5", fillcolor="#e640c2"] ;
553 -> 554 ;
555 [label="gini = 0.0\nsamples = 32\nvalue = [0, 0, 0, 0, 32]\nclass = 5", fillcolor="#e539c0"] ;
554 -> 555 ;
556 [label="xmin <= 179.0\ngini = 0.169\nsamples = 22\nvalue = [1, 1, 0, 0, 20]\nclass = 5", fillcolor="#e74cc6"] ;
554 -> 556 ;
557 [label="xmin <= 177.0\ngini = 0.5\nsamples = 2\nvalue = [1, 1, 0, 0, 0]\nclass = 1", fillcolor="#ffffff"] ;
556 -> 557 ;
558 [label="gini = 0.0\nsamples = 1\nvalue = [1, 0, 0, 0, 0]\nclass = 1", fillcolor="#e58139"] ;
557 -> 558 ;
559 [label="gini = 0.0\nsamples = 1\nvalue = [0, 1, 0, 0, 0]\nclass = 2", fillcolor="#7be539"] ;
557 -> 559 ;
560 [label="gini = 0.0\nsamples = 20\nvalue = [0, 0, 0, 0, 20]\nclass = 5", fillcolor="#e539c0"] ;
556 -> 560 ;
561 [label="gini = 0.0\nsamples = 1\nvalue = [0, 1, 0, 0, 0]\nclass = 2", fillcolor="#7be539"] ;
553 -> 561 ;
562 [label="ymax <= 126.5\ngini = 0.333\nsamples = 25\nvalue = [4, 1, 0, 0, 20]\nclass = 5", fillcolor="#eb68cf"] ;
552 -> 562 ;
563 [label="gini = 0.0\nsamples = 1\nvalue = [1, 0, 0, 0, 0]\nclass = 1", fillcolor="#e58139"] ;
562 -> 563 ;
564 [label="xmax <= 188.5\ngini = 0.288\nsamples = 24\nvalue = [3, 1, 0, 0, 20]\nclass = 5", fillcolor="#ea5fcc"] ;
562 -> 564 ;
565 [label="ymax <= 131.5\ngini = 0.124\nsamples = 15\nvalue = [1, 0, 0, 0, 14]\nclass = 5", fillcolor="#e747c4"] ;
564 -> 565 ;
566 [label="gini = 0.0\nsamples = 11\nvalue = [0, 0, 0, 0, 11]\nclass = 5", fillcolor="#e539c0"] ;
565 -> 566 ;
567 [label="ymax <= 133.0\ngini = 0.375\nsamples = 4\nvalue = [1, 0, 0, 0, 3]\nclass = 5", fillcolor="#ee7bd5"] ;
565 -> 567 ;
568 [label="gini = 0.0\nsamples = 1\nvalue = [1, 0, 0, 0, 0]\nclass = 1", fillcolor="#e58139"] ;
567 -> 568 ;
569 [label="gini = 0.0\nsamples = 3\nvalue = [0, 0, 0, 0, 3]\nclass = 5", fillcolor="#e539c0"] ;
567 -> 569 ;
570 [label="xmin <= 182.5\ngini = 0.494\nsamples = 9\nvalue = [2, 1, 0, 0, 6]\nclass = 5", fillcolor="#f08edb"] ;
564 -> 570 ;
571 [label="xmin <= 178.5\ngini = 0.444\nsamples = 3\nvalue = [2, 1, 0, 0, 0]\nclass = 1", fillcolor="#f2c09c"] ;
570 -> 571 ;
572 [label="gini = 0.0\nsamples = 2\nvalue = [2, 0, 0, 0, 0]\nclass = 1", fillcolor="#e58139"] ;
571 -> 572 ;
573 [label="gini = 0.0\nsamples = 1\nvalue = [0, 1, 0, 0, 0]\nclass = 2", fillcolor="#7be539"] ;
571 -> 573 ;
574 [label="gini = 0.0\nsamples = 6\nvalue = [0, 0, 0, 0, 6]\nclass = 5", fillcolor="#e539c0"] ;
570 -> 574 ;
575 [label="gini = 0.0\nsamples = 13\nvalue = [13, 0, 0, 0, 0]\nclass = 1", fillcolor="#e58139"] ;
425 -> 575 ;
576 [label="ymax <= 118.5\ngini = 0.081\nsamples = 2011\nvalue = [76.0, 4.0, 5.0, 0.0, 1926.0]\nclass = 5", fillcolor="#e642c3"] ;
424 -> 576 ;
577 [label="ymin <= 109.5\ngini = 0.245\nsamples = 84\nvalue = [12, 0, 0, 0, 72]\nclass = 5", fillcolor="#e95acb"] ;
576 -> 577 ;
578 [label="xmax <= 215.5\ngini = 0.188\nsamples = 76\nvalue = [8, 0, 0, 0, 68]\nclass = 5", fillcolor="#e850c7"] ;
577 -> 578 ;
579 [label="gini = 0.0\nsamples = 18\nvalue = [0, 0, 0, 0, 18]\nclass = 5", fillcolor="#e539c0"] ;
578 -> 579 ;
580 [label="xmin <= 208.5\ngini = 0.238\nsamples = 58\nvalue = [8, 0, 0, 0, 50]\nclass = 5", fillcolor="#e959ca"] ;
578 -> 580 ;
581 [label="ymin <= 108.5\ngini = 0.444\nsamples = 3\nvalue = [2, 0, 0, 0, 1]\nclass = 1", fillcolor="#f2c09c"] ;
580 -> 581 ;
582 [label="gini = 0.0\nsamples = 2\nvalue = [2, 0, 0, 0, 0]\nclass = 1", fillcolor="#e58139"] ;
581 -> 582 ;
583 [label="gini = 0.0\nsamples = 1\nvalue = [0, 0, 0, 0, 1]\nclass = 5", fillcolor="#e539c0"] ;
581 -> 583 ;
584 [label="ymax <= 116.5\ngini = 0.194\nsamples = 55\nvalue = [6, 0, 0, 0, 49]\nclass = 5", fillcolor="#e851c8"] ;
580 -> 584 ;
585 [label="ymin <= 108.5\ngini = 0.337\nsamples = 14\nvalue = [3, 0, 0, 0, 11]\nclass = 5", fillcolor="#ec6fd1"] ;
584 -> 585 ;
586 [label="xmin <= 218.0\ngini = 0.26\nsamples = 13\nvalue = [2, 0, 0, 0, 11]\nclass = 5", fillcolor="#ea5dcb"] ;
585 -> 586 ;
587 [label="gini = 0.0\nsamples = 5\nvalue = [0, 0, 0, 0, 5]\nclass = 5", fillcolor="#e539c0"] ;
586 -> 587 ;
588 [label="xmax <= 228.0\ngini = 0.375\nsamples = 8\nvalue = [2, 0, 0, 0, 6]\nclass = 5", fillcolor="#ee7bd5"] ;
586 -> 588 ;
589 [label="gini = 0.0\nsamples = 1\nvalue = [1, 0, 0, 0, 0]\nclass = 1", fillcolor="#e58139"] ;
588 -> 589 ;
590 [label="xmin <= 243.0\ngini = 0.245\nsamples = 7\nvalue = [1, 0, 0, 0, 6]\nclass = 5", fillcolor="#e95acb"] ;
588 -> 590 ;
591 [label="gini = 0.0\nsamples = 4\nvalue = [0, 0, 0, 0, 4]\nclass = 5", fillcolor="#e539c0"] ;
590 -> 591 ;
592 [label="xmax <= 269.0\ngini = 0.444\nsamples = 3\nvalue = [1, 0, 0, 0, 2]\nclass = 5", fillcolor="#f29ce0"] ;
590 -> 592 ;
593 [label="gini = 0.0\nsamples = 1\nvalue = [1, 0, 0, 0, 0]\nclass = 1", fillcolor="#e58139"] ;
592 -> 593 ;
594 [label="gini = 0.0\nsamples = 2\nvalue = [0, 0, 0, 0, 2]\nclass = 5", fillcolor="#e539c0"] ;
592 -> 594 ;
595 [label="gini = 0.0\nsamples = 1\nvalue = [1, 0, 0, 0, 0]\nclass = 1", fillcolor="#e58139"] ;
585 -> 595 ;
596 [label="xmax <= 345.0\ngini = 0.136\nsamples = 41\nvalue = [3, 0, 0, 0, 38]\nclass = 5", fillcolor="#e749c5"] ;
584 -> 596 ;
597 [label="ymax <= 117.5\ngini = 0.1\nsamples = 38\nvalue = [2, 0, 0, 0, 36]\nclass = 5", fillcolor="#e644c4"] ;
596 -> 597 ;
598 [label="xmax <= 242.5\ngini = 0.208\nsamples = 17\nvalue = [2, 0, 0, 0, 15]\nclass = 5", fillcolor="#e853c8"] ;
597 -> 598 ;
599 [label="gini = 0.0\nsamples = 8\nvalue = [0, 0, 0, 0, 8]\nclass = 5", fillcolor="#e539c0"] ;
598 -> 599 ;
600 [label="xmax <= 247.0\ngini = 0.346\nsamples = 9\nvalue = [2, 0, 0, 0, 7]\nclass = 5", fillcolor="#ec72d2"] ;
598 -> 600 ;
601 [label="gini = 0.0\nsamples = 1\nvalue = [1, 0, 0, 0, 0]\nclass = 1", fillcolor="#e58139"] ;
600 -> 601 ;
602 [label="xmin <= 253.0\ngini = 0.219\nsamples = 8\nvalue = [1, 0, 0, 0, 7]\nclass = 5", fillcolor="#e955c9"] ;
600 -> 602 ;
603 [label="xmin <= 249.0\ngini = 0.444\nsamples = 3\nvalue = [1, 0, 0, 0, 2]\nclass = 5", fillcolor="#f29ce0"] ;
602 -> 603 ;
604 [label="gini = 0.0\nsamples = 2\nvalue = [0, 0, 0, 0, 2]\nclass = 5", fillcolor="#e539c0"] ;
603 -> 604 ;
605 [label="gini = 0.0\nsamples = 1\nvalue = [1, 0, 0, 0, 0]\nclass = 1", fillcolor="#e58139"] ;
603 -> 605 ;
606 [label="gini = 0.0\nsamples = 5\nvalue = [0, 0, 0, 0, 5]\nclass = 5", fillcolor="#e539c0"] ;
602 -> 606 ;
607 [label="gini = 0.0\nsamples = 21\nvalue = [0, 0, 0, 0, 21]\nclass = 5", fillcolor="#e539c0"] ;
597 -> 607 ;
608 [label="xmax <= 352.0\ngini = 0.444\nsamples = 3\nvalue = [1, 0, 0, 0, 2]\nclass = 5", fillcolor="#f29ce0"] ;
596 -> 608 ;
609 [label="gini = 0.0\nsamples = 1\nvalue = [1, 0, 0, 0, 0]\nclass = 1", fillcolor="#e58139"] ;
608 -> 609 ;
610 [label="gini = 0.0\nsamples = 2\nvalue = [0, 0, 0, 0, 2]\nclass = 5", fillcolor="#e539c0"] ;
608 -> 610 ;
611 [label="xmax <= 214.0\ngini = 0.5\nsamples = 8\nvalue = [4, 0, 0, 0, 4]\nclass = 1", fillcolor="#ffffff"] ;
577 -> 611 ;
612 [label="gini = 0.0\nsamples = 2\nvalue = [2, 0, 0, 0, 0]\nclass = 1", fillcolor="#e58139"] ;
611 -> 612 ;
613 [label="xmax <= 228.0\ngini = 0.444\nsamples = 6\nvalue = [2, 0, 0, 0, 4]\nclass = 5", fillcolor="#f29ce0"] ;
611 -> 613 ;
614 [label="gini = 0.0\nsamples = 3\nvalue = [0, 0, 0, 0, 3]\nclass = 5", fillcolor="#e539c0"] ;
613 -> 614 ;
615 [label="xmax <= 256.0\ngini = 0.444\nsamples = 3\nvalue = [2, 0, 0, 0, 1]\nclass = 1", fillcolor="#f2c09c"] ;
613 -> 615 ;
616 [label="gini = 0.0\nsamples = 2\nvalue = [2, 0, 0, 0, 0]\nclass = 1", fillcolor="#e58139"] ;
615 -> 616 ;
617 [label="gini = 0.0\nsamples = 1\nvalue = [0, 0, 0, 0, 1]\nclass = 5", fillcolor="#e539c0"] ;
615 -> 617 ;
618 [label="ymax <= 125.5\ngini = 0.073\nsamples = 1927\nvalue = [64, 4, 5, 0, 1854]\nclass = 5", fillcolor="#e641c2"] ;
576 -> 618 ;
619 [label="ymin <= 117.5\ngini = 0.11\nsamples = 757\nvalue = [40, 2, 2, 0, 713]\nclass = 5", fillcolor="#e745c4"] ;
618 -> 619 ;
620 [label="ymin <= 114.5\ngini = 0.102\nsamples = 749\nvalue = [36, 2, 2, 0, 709]\nclass = 5", fillcolor="#e644c4"] ;
619 -> 620 ;
621 [label="xmax <= 341.5\ngini = 0.087\nsamples = 662\nvalue = [26, 2, 2, 0, 632]\nclass = 5", fillcolor="#e642c3"] ;
620 -> 621 ;
622 [label="xmax <= 233.5\ngini = 0.077\nsamples = 624\nvalue = [21, 2, 2, 0, 599]\nclass = 5", fillcolor="#e641c3"] ;
621 -> 622 ;
623 [label="ymin <= 113.5\ngini = 0.045\nsamples = 264\nvalue = [3, 1, 2, 0, 258]\nclass = 5", fillcolor="#e63ec1"] ;
622 -> 623 ;
624 [label="ymax <= 122.5\ngini = 0.026\nsamples = 227\nvalue = [0, 1, 2, 0, 224]\nclass = 5", fillcolor="#e53cc1"] ;
623 -> 624 ;
625 [label="ymax <= 121.5\ngini = 0.011\nsamples = 177\nvalue = [0, 0, 1, 0, 176]\nclass = 5", fillcolor="#e53ac0"] ;
624 -> 625 ;
626 [label="gini = 0.0\nsamples = 109\nvalue = [0, 0, 0, 0, 109]\nclass = 5", fillcolor="#e539c0"] ;
625 -> 626 ;
627 [label="xmax <= 215.5\ngini = 0.029\nsamples = 68\nvalue = [0, 0, 1, 0, 67]\nclass = 5", fillcolor="#e53cc1"] ;
625 -> 627 ;
628 [label="xmin <= 205.5\ngini = 0.133\nsamples = 14\nvalue = [0, 0, 1, 0, 13]\nclass = 5", fillcolor="#e748c5"] ;
627 -> 628 ;
629 [label="gini = 0.0\nsamples = 12\nvalue = [0, 0, 0, 0, 12]\nclass = 5", fillcolor="#e539c0"] ;
628 -> 629 ;
630 [label="ymin <= 110.5\ngini = 0.5\nsamples = 2\nvalue = [0, 0, 1, 0, 1]\nclass = 3", fillcolor="#ffffff"] ;
628 -> 630 ;
631 [label="gini = 0.0\nsamples = 1\nvalue = [0, 0, 1, 0, 0]\nclass = 3", fillcolor="#39e5c5"] ;
630 -> 631 ;
632 [label="gini = 0.0\nsamples = 1\nvalue = [0, 0, 0, 0, 1]\nclass = 5", fillcolor="#e539c0"] ;
630 -> 632 ;
633 [label="gini = 0.0\nsamples = 54\nvalue = [0, 0, 0, 0, 54]\nclass = 5", fillcolor="#e539c0"] ;
627 -> 633 ;
634 [label="ymin <= 109.5\ngini = 0.078\nsamples = 50\nvalue = [0, 1, 1, 0, 48]\nclass = 5", fillcolor="#e641c3"] ;
624 -> 634 ;
635 [label="xmax <= 228.5\ngini = 0.37\nsamples = 9\nvalue = [0, 1, 1, 0, 7]\nclass = 5", fillcolor="#ec6ad0"] ;
634 -> 635 ;
636 [label="xmin <= 204.5\ngini = 0.219\nsamples = 8\nvalue = [0, 0, 1, 0, 7]\nclass = 5", fillcolor="#e955c9"] ;
635 -> 636 ;
637 [label="gini = 0.0\nsamples = 5\nvalue = [0, 0, 0, 0, 5]\nclass = 5", fillcolor="#e539c0"] ;
636 -> 637 ;
638 [label="xmax <= 214.5\ngini = 0.444\nsamples = 3\nvalue = [0, 0, 1, 0, 2]\nclass = 5", fillcolor="#f29ce0"] ;
636 -> 638 ;
639 [label="gini = 0.0\nsamples = 1\nvalue = [0, 0, 1, 0, 0]\nclass = 3", fillcolor="#39e5c5"] ;
638 -> 639 ;
640 [label="gini = 0.0\nsamples = 2\nvalue = [0, 0, 0, 0, 2]\nclass = 5", fillcolor="#e539c0"] ;
638 -> 640 ;
641 [label="gini = 0.0\nsamples = 1\nvalue = [0, 1, 0, 0, 0]\nclass = 2", fillcolor="#7be539"] ;
635 -> 641 ;
642 [label="gini = 0.0\nsamples = 41\nvalue = [0, 0, 0, 0, 41]\nclass = 5", fillcolor="#e539c0"] ;
634 -> 642 ;
643 [label="ymax <= 121.5\ngini = 0.149\nsamples = 37\nvalue = [3, 0, 0, 0, 34]\nclass = 5", fillcolor="#e74ac6"] ;
623 -> 643 ;
644 [label="xmax <= 215.0\ngini = 0.5\nsamples = 2\nvalue = [1, 0, 0, 0, 1]\nclass = 1", fillcolor="#ffffff"] ;
643 -> 644 ;
645 [label="gini = 0.0\nsamples = 1\nvalue = [1, 0, 0, 0, 0]\nclass = 1", fillcolor="#e58139"] ;
644 -> 645 ;
646 [label="gini = 0.0\nsamples = 1\nvalue = [0, 0, 0, 0, 1]\nclass = 5", fillcolor="#e539c0"] ;
644 -> 646 ;
647 [label="xmax <= 230.0\ngini = 0.108\nsamples = 35\nvalue = [2, 0, 0, 0, 33]\nclass = 5", fillcolor="#e745c4"] ;
643 -> 647 ;
648 [label="ymax <= 122.5\ngini = 0.062\nsamples = 31\nvalue = [1, 0, 0, 0, 30]\nclass = 5", fillcolor="#e640c2"] ;
647 -> 648 ;
649 [label="xmax <= 215.5\ngini = 0.444\nsamples = 3\nvalue = [1, 0, 0, 0, 2]\nclass = 5", fillcolor="#f29ce0"] ;
648 -> 649 ;
650 [label="gini = 0.0\nsamples = 2\nvalue = [0, 0, 0, 0, 2]\nclass = 5", fillcolor="#e539c0"] ;
649 -> 650 ;
651 [label="gini = 0.0\nsamples = 1\nvalue = [1, 0, 0, 0, 0]\nclass = 1", fillcolor="#e58139"] ;
649 -> 651 ;
652 [label="gini = 0.0\nsamples = 28\nvalue = [0, 0, 0, 0, 28]\nclass = 5", fillcolor="#e539c0"] ;
648 -> 652 ;
653 [label="xmax <= 231.5\ngini = 0.375\nsamples = 4\nvalue = [1, 0, 0, 0, 3]\nclass = 5", fillcolor="#ee7bd5"] ;
647 -> 653 ;
654 [label="gini = 0.0\nsamples = 1\nvalue = [1, 0, 0, 0, 0]\nclass = 1", fillcolor="#e58139"] ;
653 -> 654 ;
655 [label="gini = 0.0\nsamples = 3\nvalue = [0, 0, 0, 0, 3]\nclass = 5", fillcolor="#e539c0"] ;
653 -> 655 ;
656 [label="xmin <= 224.5\ngini = 0.1\nsamples = 360\nvalue = [18, 1, 0, 0, 341]\nclass = 5", fillcolor="#e644c4"] ;
622 -> 656 ;
657 [label="gini = 0.0\nsamples = 5\nvalue = [5, 0, 0, 0, 0]\nclass = 1", fillcolor="#e58139"] ;
656 -> 657 ;
658 [label="ymax <= 122.5\ngini = 0.076\nsamples = 355\nvalue = [13, 1, 0, 0, 341]\nclass = 5", fillcolor="#e641c3"] ;
656 -> 658 ;
659 [label="xmin <= 228.5\ngini = 0.132\nsamples = 156\nvalue = [10, 1, 0, 0, 145]\nclass = 5", fillcolor="#e748c5"] ;
658 -> 659 ;
660 [label="ymin <= 112.5\ngini = 0.5\nsamples = 6\nvalue = [1, 1, 0, 0, 4]\nclass = 5", fillcolor="#ef88d9"] ;
659 -> 660 ;
661 [label="xmin <= 226.5\ngini = 0.32\nsamples = 5\nvalue = [1, 0, 0, 0, 4]\nclass = 5", fillcolor="#ec6ad0"] ;
660 -> 661 ;
662 [label="gini = 0.0\nsamples = 2\nvalue = [0, 0, 0, 0, 2]\nclass = 5", fillcolor="#e539c0"] ;
661 -> 662 ;
663 [label="ymax <= 120.5\ngini = 0.444\nsamples = 3\nvalue = [1, 0, 0, 0, 2]\nclass = 5", fillcolor="#f29ce0"] ;
661 -> 663 ;
664 [label="gini = 0.0\nsamples = 1\nvalue = [1, 0, 0, 0, 0]\nclass = 1", fillcolor="#e58139"] ;
663 -> 664 ;
665 [label="gini = 0.0\nsamples = 2\nvalue = [0, 0, 0, 0, 2]\nclass = 5", fillcolor="#e539c0"] ;
663 -> 665 ;
666 [label="gini = 0.0\nsamples = 1\nvalue = [0, 1, 0, 0, 0]\nclass = 2", fillcolor="#7be539"] ;
660 -> 666 ;
667 [label="xmax <= 247.5\ngini = 0.113\nsamples = 150\nvalue = [9, 0, 0, 0, 141]\nclass = 5", fillcolor="#e746c4"] ;
659 -> 667 ;
668 [label="gini = 0.0\nsamples = 36\nvalue = [0, 0, 0, 0, 36]\nclass = 5", fillcolor="#e539c0"] ;
667 -> 668 ;
669 [label="xmax <= 249.5\ngini = 0.145\nsamples = 114\nvalue = [9, 0, 0, 0, 105]\nclass = 5", fillcolor="#e74ac5"] ;
667 -> 669 ;
670 [label="gini = 0.0\nsamples = 2\nvalue = [2, 0, 0, 0, 0]\nclass = 1", fillcolor="#e58139"] ;
669 -> 670 ;
671 [label="xmax <= 259.0\ngini = 0.117\nsamples = 112\nvalue = [7, 0, 0, 0, 105]\nclass = 5", fillcolor="#e746c4"] ;
669 -> 671 ;
672 [label="gini = 0.0\nsamples = 22\nvalue = [0, 0, 0, 0, 22]\nclass = 5", fillcolor="#e539c0"] ;
671 -> 672 ;
673 [label="xmax <= 262.0\ngini = 0.143\nsamples = 90\nvalue = [7, 0, 0, 0, 83]\nclass = 5", fillcolor="#e74ac5"] ;
671 -> 673 ;
674 [label="ymin <= 108.0\ngini = 0.5\nsamples = 2\nvalue = [1, 0, 0, 0, 1]\nclass = 1", fillcolor="#ffffff"] ;
673 -> 674 ;
675 [label="gini = 0.0\nsamples = 1\nvalue = [0, 0, 0, 0, 1]\nclass = 5", fillcolor="#e539c0"] ;
674 -> 675 ;
676 [label="gini = 0.0\nsamples = 1\nvalue = [1, 0, 0, 0, 0]\nclass = 1", fillcolor="#e58139"] ;
674 -> 676 ;
677 [label="xmin <= 281.5\ngini = 0.127\nsamples = 88\nvalue = [6, 0, 0, 0, 82]\nclass = 5", fillcolor="#e747c5"] ;
673 -> 677 ;
678 [label="xmax <= 290.5\ngini = 0.219\nsamples = 32\nvalue = [4, 0, 0, 0, 28]\nclass = 5", fillcolor="#e955c9"] ;
677 -> 678 ;
679 [label="ymin <= 112.5\ngini = 0.124\nsamples = 30\nvalue = [2, 0, 0, 0, 28]\nclass = 5", fillcolor="#e747c4"] ;
678 -> 679 ;
680 [label="xmin <= 266.5\ngini = 0.069\nsamples = 28\nvalue = [1, 0, 0, 0, 27]\nclass = 5", fillcolor="#e640c2"] ;
679 -> 680 ;
681 [label="xmax <= 274.0\ngini = 0.198\nsamples = 9\nvalue = [1, 0, 0, 0, 8]\nclass = 5", fillcolor="#e852c8"] ;
680 -> 681 ;
682 [label="gini = 0.0\nsamples = 8\nvalue = [0, 0, 0, 0, 8]\nclass = 5", fillcolor="#e539c0"] ;
681 -> 682 ;
683 [label="gini = 0.0\nsamples = 1\nvalue = [1, 0, 0, 0, 0]\nclass = 1", fillcolor="#e58139"] ;
681 -> 683 ;
684 [label="gini = 0.0\nsamples = 19\nvalue = [0, 0, 0, 0, 19]\nclass = 5", fillcolor="#e539c0"] ;
680 -> 684 ;
685 [label="ymax <= 121.5\ngini = 0.5\nsamples = 2\nvalue = [1, 0, 0, 0, 1]\nclass = 1", fillcolor="#ffffff"] ;
679 -> 685 ;
686 [label="gini = 0.0\nsamples = 1\nvalue = [1, 0, 0, 0, 0]\nclass = 1", fillcolor="#e58139"] ;
685 -> 686 ;
687 [label="gini = 0.0\nsamples = 1\nvalue = [0, 0, 0, 0, 1]\nclass = 5", fillcolor="#e539c0"] ;
685 -> 687 ;
688 [label="gini = 0.0\nsamples = 2\nvalue = [2, 0, 0, 0, 0]\nclass = 1", fillcolor="#e58139"] ;
678 -> 688 ;
689 [label="xmax <= 327.5\ngini = 0.069\nsamples = 56\nvalue = [2, 0, 0, 0, 54]\nclass = 5", fillcolor="#e640c2"] ;
677 -> 689 ;
690 [label="gini = 0.0\nsamples = 35\nvalue = [0, 0, 0, 0, 35]\nclass = 5", fillcolor="#e539c0"] ;
689 -> 690 ;
691 [label="xmin <= 315.5\ngini = 0.172\nsamples = 21\nvalue = [2, 0, 0, 0, 19]\nclass = 5", fillcolor="#e84ec7"] ;
689 -> 691 ;
692 [label="gini = 0.0\nsamples = 2\nvalue = [2, 0, 0, 0, 0]\nclass = 1", fillcolor="#e58139"] ;
691 -> 692 ;
693 [label="gini = 0.0\nsamples = 19\nvalue = [0, 0, 0, 0, 19]\nclass = 5", fillcolor="#e539c0"] ;
691 -> 693 ;
694 [label="xmin <= 238.5\ngini = 0.03\nsamples = 199\nvalue = [3, 0, 0, 0, 196]\nclass = 5", fillcolor="#e53cc1"] ;
658 -> 694 ;
695 [label="xmax <= 248.0\ngini = 0.128\nsamples = 29\nvalue = [2, 0, 0, 0, 27]\nclass = 5", fillcolor="#e748c5"] ;
694 -> 695 ;
696 [label="gini = 0.0\nsamples = 26\nvalue = [0, 0, 0, 0, 26]\nclass = 5", fillcolor="#e539c0"] ;
695 -> 696 ;
697 [label="ymin <= 108.0\ngini = 0.444\nsamples = 3\nvalue = [2, 0, 0, 0, 1]\nclass = 1", fillcolor="#f2c09c"] ;
695 -> 697 ;
698 [label="gini = 0.0\nsamples = 1\nvalue = [0, 0, 0, 0, 1]\nclass = 5", fillcolor="#e539c0"] ;
697 -> 698 ;
699 [label="gini = 0.0\nsamples = 2\nvalue = [2, 0, 0, 0, 0]\nclass = 1", fillcolor="#e58139"] ;
697 -> 699 ;
700 [label="xmin <= 277.0\ngini = 0.012\nsamples = 170\nvalue = [1, 0, 0, 0, 169]\nclass = 5", fillcolor="#e53ac0"] ;
694 -> 700 ;
701 [label="xmin <= 275.5\ngini = 0.032\nsamples = 61\nvalue = [1, 0, 0, 0, 60]\nclass = 5", fillcolor="#e53cc1"] ;
700 -> 701 ;
702 [label="gini = 0.0\nsamples = 60\nvalue = [0, 0, 0, 0, 60]\nclass = 5", fillcolor="#e539c0"] ;
701 -> 702 ;
703 [label="gini = 0.0\nsamples = 1\nvalue = [1, 0, 0, 0, 0]\nclass = 1", fillcolor="#e58139"] ;
701 -> 703 ;
704 [label="gini = 0.0\nsamples = 109\nvalue = [0, 0, 0, 0, 109]\nclass = 5", fillcolor="#e539c0"] ;
700 -> 704 ;
705 [label="xmin <= 330.5\ngini = 0.229\nsamples = 38\nvalue = [5, 0, 0, 0, 33]\nclass = 5", fillcolor="#e957ca"] ;
621 -> 705 ;
706 [label="gini = 0.0\nsamples = 5\nvalue = [5, 0, 0, 0, 0]\nclass = 1", fillcolor="#e58139"] ;
705 -> 706 ;
707 [label="gini = 0.0\nsamples = 33\nvalue = [0, 0, 0, 0, 33]\nclass = 5", fillcolor="#e539c0"] ;
705 -> 707 ;
708 [label="ymax <= 122.5\ngini = 0.203\nsamples = 87\nvalue = [10, 0, 0, 0, 77]\nclass = 5", fillcolor="#e853c8"] ;
620 -> 708 ;
709 [label="xmin <= 286.0\ngini = 0.32\nsamples = 5\nvalue = [4, 0, 0, 0, 1]\nclass = 1", fillcolor="#eca06a"] ;
708 -> 709 ;
710 [label="gini = 0.0\nsamples = 4\nvalue = [4, 0, 0, 0, 0]\nclass = 1", fillcolor="#e58139"] ;
709 -> 710 ;
711 [label="gini = 0.0\nsamples = 1\nvalue = [0, 0, 0, 0, 1]\nclass = 5", fillcolor="#e539c0"] ;
709 -> 711 ;
712 [label="ymax <= 123.5\ngini = 0.136\nsamples = 82\nvalue = [6, 0, 0, 0, 76]\nclass = 5", fillcolor="#e749c5"] ;
708 -> 712 ;
713 [label="xmin <= 255.0\ngini = 0.397\nsamples = 11\nvalue = [3, 0, 0, 0, 8]\nclass = 5", fillcolor="#ef83d8"] ;
712 -> 713 ;
714 [label="xmax <= 219.5\ngini = 0.48\nsamples = 5\nvalue = [3, 0, 0, 0, 2]\nclass = 1", fillcolor="#f6d5bd"] ;
713 -> 714 ;
715 [label="gini = 0.0\nsamples = 2\nvalue = [0, 0, 0, 0, 2]\nclass = 5", fillcolor="#e539c0"] ;
714 -> 715 ;
716 [label="gini = 0.0\nsamples = 3\nvalue = [3, 0, 0, 0, 0]\nclass = 1", fillcolor="#e58139"] ;
714 -> 716 ;
717 [label="gini = 0.0\nsamples = 6\nvalue = [0, 0, 0, 0, 6]\nclass = 5", fillcolor="#e539c0"] ;
713 -> 717 ;
718 [label="xmax <= 248.5\ngini = 0.081\nsamples = 71\nvalue = [3, 0, 0, 0, 68]\nclass = 5", fillcolor="#e642c3"] ;
712 -> 718 ;
719 [label="xmin <= 208.0\ngini = 0.035\nsamples = 56\nvalue = [1, 0, 0, 0, 55]\nclass = 5", fillcolor="#e53dc1"] ;
718 -> 719 ;
720 [label="xmax <= 220.0\ngini = 0.219\nsamples = 8\nvalue = [1, 0, 0, 0, 7]\nclass = 5", fillcolor="#e955c9"] ;
719 -> 720 ;
721 [label="gini = 0.0\nsamples = 7\nvalue = [0, 0, 0, 0, 7]\nclass = 5", fillcolor="#e539c0"] ;
720 -> 721 ;
722 [label="gini = 0.0\nsamples = 1\nvalue = [1, 0, 0, 0, 0]\nclass = 1", fillcolor="#e58139"] ;
720 -> 722 ;
723 [label="gini = 0.0\nsamples = 48\nvalue = [0, 0, 0, 0, 48]\nclass = 5", fillcolor="#e539c0"] ;
719 -> 723 ;
724 [label="xmin <= 258.0\ngini = 0.231\nsamples = 15\nvalue = [2, 0, 0, 0, 13]\nclass = 5", fillcolor="#e957ca"] ;
718 -> 724 ;
725 [label="ymax <= 124.5\ngini = 0.444\nsamples = 3\nvalue = [2, 0, 0, 0, 1]\nclass = 1", fillcolor="#f2c09c"] ;
724 -> 725 ;
726 [label="gini = 0.0\nsamples = 2\nvalue = [2, 0, 0, 0, 0]\nclass = 1", fillcolor="#e58139"] ;
725 -> 726 ;
727 [label="gini = 0.0\nsamples = 1\nvalue = [0, 0, 0, 0, 1]\nclass = 5", fillcolor="#e539c0"] ;
725 -> 727 ;
728 [label="gini = 0.0\nsamples = 12\nvalue = [0, 0, 0, 0, 12]\nclass = 5", fillcolor="#e539c0"] ;
724 -> 728 ;
729 [label="xmax <= 269.0\ngini = 0.5\nsamples = 8\nvalue = [4, 0, 0, 0, 4]\nclass = 1", fillcolor="#ffffff"] ;
619 -> 729 ;
730 [label="xmax <= 224.0\ngini = 0.444\nsamples = 6\nvalue = [4, 0, 0, 0, 2]\nclass = 1", fillcolor="#f2c09c"] ;
729 -> 730 ;
731 [label="xmin <= 208.0\ngini = 0.444\nsamples = 3\nvalue = [1, 0, 0, 0, 2]\nclass = 5", fillcolor="#f29ce0"] ;
730 -> 731 ;
732 [label="gini = 0.0\nsamples = 1\nvalue = [1, 0, 0, 0, 0]\nclass = 1", fillcolor="#e58139"] ;
731 -> 732 ;
733 [label="gini = 0.0\nsamples = 2\nvalue = [0, 0, 0, 0, 2]\nclass = 5", fillcolor="#e539c0"] ;
731 -> 733 ;
734 [label="gini = 0.0\nsamples = 3\nvalue = [3, 0, 0, 0, 0]\nclass = 1", fillcolor="#e58139"] ;
730 -> 734 ;
735 [label="gini = 0.0\nsamples = 2\nvalue = [0, 0, 0, 0, 2]\nclass = 5", fillcolor="#e539c0"] ;
729 -> 735 ;
736 [label="xmax <= 372.5\ngini = 0.049\nsamples = 1170\nvalue = [24, 2, 3, 0, 1141]\nclass = 5", fillcolor="#e63ec2"] ;
618 -> 736 ;
737 [label="xmin <= 258.5\ngini = 0.047\nsamples = 1167\nvalue = [24, 2, 2, 0, 1139]\nclass = 5", fillcolor="#e63ec2"] ;
736 -> 737 ;
738 [label="xmax <= 267.5\ngini = 0.083\nsamples = 373\nvalue = [14.0, 2.0, 0.0, 0.0, 357.0]\nclass = 5", fillcolor="#e642c3"] ;
737 -> 738 ;
739 [label="xmax <= 221.5\ngini = 0.064\nsamples = 362\nvalue = [10, 2, 0, 0, 350]\nclass = 5", fillcolor="#e640c2"] ;
738 -> 739 ;
740 [label="gini = 0.0\nsamples = 129\nvalue = [0, 0, 0, 0, 129]\nclass = 5", fillcolor="#e539c0"] ;
739 -> 740 ;
741 [label="xmin <= 206.5\ngini = 0.098\nsamples = 233\nvalue = [10, 2, 0, 0, 221]\nclass = 5", fillcolor="#e644c3"] ;
739 -> 741 ;
742 [label="gini = 0.0\nsamples = 2\nvalue = [2, 0, 0, 0, 0]\nclass = 1", fillcolor="#e58139"] ;
741 -> 742 ;
743 [label="xmin <= 214.5\ngini = 0.083\nsamples = 231\nvalue = [8, 2, 0, 0, 221]\nclass = 5", fillcolor="#e642c3"] ;
741 -> 743 ;
744 [label="xmax <= 225.5\ngini = 0.357\nsamples = 14\nvalue = [2, 1, 0, 0, 11]\nclass = 5", fillcolor="#ec6bd0"] ;
743 -> 744 ;
745 [label="ymin <= 117.5\ngini = 0.153\nsamples = 12\nvalue = [1, 0, 0, 0, 11]\nclass = 5", fillcolor="#e74bc6"] ;
744 -> 745 ;
746 [label="gini = 0.0\nsamples = 11\nvalue = [0, 0, 0, 0, 11]\nclass = 5", fillcolor="#e539c0"] ;
745 -> 746 ;
747 [label="gini = 0.0\nsamples = 1\nvalue = [1, 0, 0, 0, 0]\nclass = 1", fillcolor="#e58139"] ;
745 -> 747 ;
748 [label="xmax <= 235.0\ngini = 0.5\nsamples = 2\nvalue = [1, 1, 0, 0, 0]\nclass = 1", fillcolor="#ffffff"] ;
744 -> 748 ;
749 [label="gini = 0.0\nsamples = 1\nvalue = [0, 1, 0, 0, 0]\nclass = 2", fillcolor="#7be539"] ;
748 -> 749 ;
750 [label="gini = 0.0\nsamples = 1\nvalue = [1, 0, 0, 0, 0]\nclass = 1", fillcolor="#e58139"] ;
748 -> 750 ;
751 [label="ymax <= 128.5\ngini = 0.063\nsamples = 217\nvalue = [6, 1, 0, 0, 210]\nclass = 5", fillcolor="#e640c2"] ;
743 -> 751 ;
752 [label="xmin <= 216.5\ngini = 0.124\nsamples = 106\nvalue = [6, 1, 0, 0, 99]\nclass = 5", fillcolor="#e747c4"] ;
751 -> 752 ;
753 [label="xmax <= 224.5\ngini = 0.444\nsamples = 3\nvalue = [1, 0, 0, 0, 2]\nclass = 5", fillcolor="#f29ce0"] ;
752 -> 753 ;
754 [label="gini = 0.0\nsamples = 2\nvalue = [0, 0, 0, 0, 2]\nclass = 5", fillcolor="#e539c0"] ;
753 -> 754 ;
755 [label="gini = 0.0\nsamples = 1\nvalue = [1, 0, 0, 0, 0]\nclass = 1", fillcolor="#e58139"] ;
753 -> 755 ;
756 [label="ymin <= 115.5\ngini = 0.111\nsamples = 103\nvalue = [5.0, 1.0, 0.0, 0.0, 97.0]\nclass = 5", fillcolor="#e745c4"] ;
752 -> 756 ;
757 [label="xmax <= 257.0\ngini = 0.043\nsamples = 46\nvalue = [0, 1, 0, 0, 45]\nclass = 5", fillcolor="#e63dc1"] ;
756 -> 757 ;
758 [label="gini = 0.0\nsamples = 32\nvalue = [0, 0, 0, 0, 32]\nclass = 5", fillcolor="#e539c0"] ;
757 -> 758 ;
759 [label="xmin <= 245.0\ngini = 0.133\nsamples = 14\nvalue = [0, 1, 0, 0, 13]\nclass = 5", fillcolor="#e748c5"] ;
757 -> 759 ;
760 [label="gini = 0.0\nsamples = 1\nvalue = [0, 1, 0, 0, 0]\nclass = 2", fillcolor="#7be539"] ;
759 -> 760 ;
761 [label="gini = 0.0\nsamples = 13\nvalue = [0, 0, 0, 0, 13]\nclass = 5", fillcolor="#e539c0"] ;
759 -> 761 ;
762 [label="xmax <= 257.0\ngini = 0.16\nsamples = 57\nvalue = [5, 0, 0, 0, 52]\nclass = 5", fillcolor="#e84cc6"] ;
756 -> 762 ;
763 [label="xmin <= 236.5\ngini = 0.137\nsamples = 54\nvalue = [4, 0, 0, 0, 50]\nclass = 5", fillcolor="#e749c5"] ;
762 -> 763 ;
764 [label="xmax <= 244.5\ngini = 0.198\nsamples = 36\nvalue = [4, 0, 0, 0, 32]\nclass = 5", fillcolor="#e852c8"] ;
763 -> 764 ;
765 [label="xmin <= 227.5\ngini = 0.111\nsamples = 34\nvalue = [2, 0, 0, 0, 32]\nclass = 5", fillcolor="#e745c4"] ;
764 -> 765 ;
766 [label="xmax <= 233.5\ngini = 0.219\nsamples = 16\nvalue = [2, 0, 0, 0, 14]\nclass = 5", fillcolor="#e955c9"] ;
765 -> 766 ;
767 [label="gini = 0.0\nsamples = 13\nvalue = [0, 0, 0, 0, 13]\nclass = 5", fillcolor="#e539c0"] ;
766 -> 767 ;
768 [label="ymin <= 117.0\ngini = 0.444\nsamples = 3\nvalue = [2, 0, 0, 0, 1]\nclass = 1", fillcolor="#f2c09c"] ;
766 -> 768 ;
769 [label="gini = 0.0\nsamples = 1\nvalue = [1, 0, 0, 0, 0]\nclass = 1", fillcolor="#e58139"] ;
768 -> 769 ;
770 [label="ymax <= 126.5\ngini = 0.5\nsamples = 2\nvalue = [1, 0, 0, 0, 1]\nclass = 1", fillcolor="#ffffff"] ;
768 -> 770 ;
771 [label="gini = 0.0\nsamples = 1\nvalue = [1, 0, 0, 0, 0]\nclass = 1", fillcolor="#e58139"] ;
770 -> 771 ;
772 [label="gini = 0.0\nsamples = 1\nvalue = [0, 0, 0, 0, 1]\nclass = 5", fillcolor="#e539c0"] ;
770 -> 772 ;
773 [label="gini = 0.0\nsamples = 18\nvalue = [0, 0, 0, 0, 18]\nclass = 5", fillcolor="#e539c0"] ;
765 -> 773 ;
774 [label="gini = 0.0\nsamples = 2\nvalue = [2, 0, 0, 0, 0]\nclass = 1", fillcolor="#e58139"] ;
764 -> 774 ;
775 [label="gini = 0.0\nsamples = 18\nvalue = [0, 0, 0, 0, 18]\nclass = 5", fillcolor="#e539c0"] ;
763 -> 775 ;
776 [label="xmax <= 258.5\ngini = 0.444\nsamples = 3\nvalue = [1, 0, 0, 0, 2]\nclass = 5", fillcolor="#f29ce0"] ;
762 -> 776 ;
777 [label="gini = 0.0\nsamples = 1\nvalue = [1, 0, 0, 0, 0]\nclass = 1", fillcolor="#e58139"] ;
776 -> 777 ;
778 [label="gini = 0.0\nsamples = 2\nvalue = [0, 0, 0, 0, 2]\nclass = 5", fillcolor="#e539c0"] ;
776 -> 778 ;
779 [label="gini = 0.0\nsamples = 111\nvalue = [0, 0, 0, 0, 111]\nclass = 5", fillcolor="#e539c0"] ;
751 -> 779 ;
780 [label="ymin <= 113.0\ngini = 0.463\nsamples = 11\nvalue = [4, 0, 0, 0, 7]\nclass = 5", fillcolor="#f4aae4"] ;
738 -> 780 ;
781 [label="gini = 0.0\nsamples = 7\nvalue = [0, 0, 0, 0, 7]\nclass = 5", fillcolor="#e539c0"] ;
780 -> 781 ;
782 [label="gini = 0.0\nsamples = 4\nvalue = [4, 0, 0, 0, 0]\nclass = 1", fillcolor="#e58139"] ;
780 -> 782 ;
783 [label="xmax <= 355.5\ngini = 0.03\nsamples = 794\nvalue = [10, 0, 2, 0, 782]\nclass = 5", fillcolor="#e53cc1"] ;
737 -> 783 ;
784 [label="xmax <= 289.5\ngini = 0.026\nsamples = 770\nvalue = [8, 0, 2, 0, 760]\nclass = 5", fillcolor="#e53cc1"] ;
783 -> 784 ;
785 [label="gini = 0.0\nsamples = 258\nvalue = [0, 0, 0, 0, 258]\nclass = 5", fillcolor="#e539c0"] ;
784 -> 785 ;
786 [label="xmin <= 275.0\ngini = 0.038\nsamples = 512\nvalue = [8, 0, 2, 0, 502]\nclass = 5", fillcolor="#e63dc1"] ;
784 -> 786 ;
787 [label="gini = 0.0\nsamples = 4\nvalue = [4, 0, 0, 0, 0]\nclass = 1", fillcolor="#e58139"] ;
786 -> 787 ;
788 [label="xmin <= 293.5\ngini = 0.023\nsamples = 508\nvalue = [4, 0, 2, 0, 502]\nclass = 5", fillcolor="#e53bc1"] ;
786 -> 788 ;
789 [label="xmax <= 307.0\ngini = 0.073\nsamples = 79\nvalue = [3, 0, 0, 0, 76]\nclass = 5", fillcolor="#e641c2"] ;
788 -> 789 ;
790 [label="gini = 0.0\nsamples = 76\nvalue = [0, 0, 0, 0, 76]\nclass = 5", fillcolor="#e539c0"] ;
789 -> 790 ;
791 [label="gini = 0.0\nsamples = 3\nvalue = [3, 0, 0, 0, 0]\nclass = 1", fillcolor="#e58139"] ;
789 -> 791 ;
792 [label="ymin <= 109.5\ngini = 0.014\nsamples = 429\nvalue = [1, 0, 2, 0, 426]\nclass = 5", fillcolor="#e53ac0"] ;
788 -> 792 ;
793 [label="ymax <= 131.0\ngini = 0.093\nsamples = 41\nvalue = [0, 0, 2, 0, 39]\nclass = 5", fillcolor="#e643c3"] ;
792 -> 793 ;
794 [label="gini = 0.0\nsamples = 38\nvalue = [0, 0, 0, 0, 38]\nclass = 5", fillcolor="#e539c0"] ;
793 -> 794 ;
795 [label="xmax <= 317.0\ngini = 0.444\nsamples = 3\nvalue = [0, 0, 2, 0, 1]\nclass = 3", fillcolor="#9cf2e2"] ;
793 -> 795 ;
796 [label="gini = 0.0\nsamples = 1\nvalue = [0, 0, 0, 0, 1]\nclass = 5", fillcolor="#e539c0"] ;
795 -> 796 ;
797 [label="gini = 0.0\nsamples = 2\nvalue = [0, 0, 2, 0, 0]\nclass = 3", fillcolor="#39e5c5"] ;
795 -> 797 ;
798 [label="ymin <= 112.5\ngini = 0.005\nsamples = 388\nvalue = [1, 0, 0, 0, 387]\nclass = 5", fillcolor="#e53ac0"] ;
792 -> 798 ;
799 [label="ymin <= 111.5\ngini = 0.053\nsamples = 37\nvalue = [1, 0, 0, 0, 36]\nclass = 5", fillcolor="#e63ec2"] ;
798 -> 799 ;
800 [label="gini = 0.0\nsamples = 26\nvalue = [0, 0, 0, 0, 26]\nclass = 5", fillcolor="#e539c0"] ;
799 -> 800 ;
801 [label="xmax <= 325.5\ngini = 0.165\nsamples = 11\nvalue = [1, 0, 0, 0, 10]\nclass = 5", fillcolor="#e84dc6"] ;
799 -> 801 ;
802 [label="gini = 0.0\nsamples = 8\nvalue = [0, 0, 0, 0, 8]\nclass = 5", fillcolor="#e539c0"] ;
801 -> 802 ;
803 [label="xmin <= 313.5\ngini = 0.444\nsamples = 3\nvalue = [1, 0, 0, 0, 2]\nclass = 5", fillcolor="#f29ce0"] ;
801 -> 803 ;
804 [label="gini = 0.0\nsamples = 1\nvalue = [1, 0, 0, 0, 0]\nclass = 1", fillcolor="#e58139"] ;
803 -> 804 ;
805 [label="gini = 0.0\nsamples = 2\nvalue = [0, 0, 0, 0, 2]\nclass = 5", fillcolor="#e539c0"] ;
803 -> 805 ;
806 [label="gini = 0.0\nsamples = 351\nvalue = [0, 0, 0, 0, 351]\nclass = 5", fillcolor="#e539c0"] ;
798 -> 806 ;
807 [label="xmin <= 325.5\ngini = 0.153\nsamples = 24\nvalue = [2, 0, 0, 0, 22]\nclass = 5", fillcolor="#e74bc6"] ;
783 -> 807 ;
808 [label="gini = 0.0\nsamples = 1\nvalue = [1, 0, 0, 0, 0]\nclass = 1", fillcolor="#e58139"] ;
807 -> 808 ;
809 [label="ymax <= 127.0\ngini = 0.083\nsamples = 23\nvalue = [1, 0, 0, 0, 22]\nclass = 5", fillcolor="#e642c3"] ;
807 -> 809 ;
810 [label="ymin <= 115.5\ngini = 0.375\nsamples = 4\nvalue = [1, 0, 0, 0, 3]\nclass = 5", fillcolor="#ee7bd5"] ;
809 -> 810 ;
811 [label="gini = 0.0\nsamples = 3\nvalue = [0, 0, 0, 0, 3]\nclass = 5", fillcolor="#e539c0"] ;
810 -> 811 ;
812 [label="gini = 0.0\nsamples = 1\nvalue = [1, 0, 0, 0, 0]\nclass = 1", fillcolor="#e58139"] ;
810 -> 812 ;
813 [label="gini = 0.0\nsamples = 19\nvalue = [0, 0, 0, 0, 19]\nclass = 5", fillcolor="#e539c0"] ;
809 -> 813 ;
814 [label="xmax <= 373.5\ngini = 0.444\nsamples = 3\nvalue = [0, 0, 1, 0, 2]\nclass = 5", fillcolor="#f29ce0"] ;
736 -> 814 ;
815 [label="gini = 0.0\nsamples = 1\nvalue = [0, 0, 1, 0, 0]\nclass = 3", fillcolor="#39e5c5"] ;
814 -> 815 ;
816 [label="gini = 0.0\nsamples = 2\nvalue = [0, 0, 0, 0, 2]\nclass = 5", fillcolor="#e539c0"] ;
814 -> 816 ;
817 [label="ymin <= 112.5\ngini = 0.579\nsamples = 87\nvalue = [36, 2, 6, 0, 43]\nclass = 5", fillcolor="#fbe4f6"] ;
417 -> 817 ;
818 [label="xmax <= 423.5\ngini = 0.368\nsamples = 40\nvalue = [7, 1, 1, 0, 31]\nclass = 5", fillcolor="#ec6fd1"] ;
817 -> 818 ;
819 [label="gini = 0.0\nsamples = 18\nvalue = [0, 0, 0, 0, 18]\nclass = 5", fillcolor="#e539c0"] ;
818 -> 819 ;
820 [label="ymax <= 122.5\ngini = 0.545\nsamples = 22\nvalue = [7, 1, 1, 0, 13]\nclass = 5", fillcolor="#f5b0e6"] ;
